Created on:,03:08:19 20/04/20             

Accuracy:,95.040000%

Number of neurons in: 
Input Layer,Hidden Layer 1,Hidden Layer 2,Output Layer,
784,16,16,10,

Weights in Hidden Layer 1
-0.301325,-0.123768,0.0927,0.443449,0.148213,-0.00914029,0.407834,0.374599,0.164724,0.193075,0.000961333,0.130421,-0.113266,0.270339,0.398415,-0.0349878,-0.445036,-0.00517289,0.307245,0.190512,0.430265,0.489166,0.137654,-0.262535,-0.260949,-0.479888,-0.24749,0.0294656,-0.3258,-0.380703,-0.272576,0.328333,-0.0162207,0.44111,-0.139484,0.116106,0.111423,0.246952,-0.521994,0.252809,-0.266014,-0.0248468,-0.1116,-0.0664678,0.343181,-0.150743,0.257193,0.0891563,-0.14213,-0.491763,0.134921,0.173856,-0.313349,0.22457,0.433134,0.299219,-0.149953,0.376705,-0.119984,-0.242491,-0.457104,-0.332214,0.0057475,-0.198375,-0.434797,-0.492506,-0.863802,-0.674868,-0.728237,-0.498395,-0.888051,-0.305526,0.142008,-0.825953,-0.609428,-0.0519807,-0.137304,-0.419338,0.262693,0.322828,0.167527,0.13175,0.376919,-0.0562914,0.0653249,-0.443907,0.0514791,-0.446474,-0.128879,0.424925,-0.173884,-0.997159,-1.68319,-1.62382,-0.514825,-0.271391,0.0731648,-0.900926,-0.410711,0.287401,-0.250378,-0.0690768,-0.459192,-1.02758,-0.635716,-0.21326,-0.492245,-0.773728,-0.149978,0.354995,0.160362,-0.129963,-0.0561388,-0.249457,-0.429907,-0.0608925,0.389736,-0.257267,-0.457599,-0.674409,-1.13261,-1.44408,-1.56217,0.535716,0.488755,-0.119317,0.815494,0.561721,1.12104,0.917933,1.17182,0.488287,0.198334,0.063653,0.35117,0.248765,0.43616,0.53752,0.130105,-0.389523,0.419309,0.0375225,0.0485935,-0.0105484,-0.210184,-0.0914284,-0.27043,-0.490798,0.346335,0.460609,-0.436856,1.33433,0.558483,-0.31438,-0.0803076,-0.217965,1.18546,0.523707,-0.184798,-0.507514,-0.536459,0.0860575,1.25827,0.738534,0.462897,0.654788,-0.190109,0.201552,-0.495483,-0.454203,0.15085,0.0373867,0.11788,0.163955,-0.199395,0.353037,0.594337,0.814759,0.323574,-0.309096,1.20022,-0.0947283,0.502491,1.07859,0.290026,1.00434,-0.6862,0.911229,1.09339,1.73206,1.36572,2.01659,0.750842,0.632437,0.257068,-0.0887262,-0.476012,-0.36908,0.279466,0.307139,0.714047,1.04026,0.342371,0.306991,0.866638,0.924318,0.524708,-0.5705,0.0960743,0.280916,0.635581,-0.00762288,0.340102,0.815968,0.666569,1.41962,1.96095,1.99138,2.58124,2.16859,1.04153,1.0252,0.0813279,-0.193528,-0.465284,-0.489941,0.202895,0.535563,0.941212,0.761403,1.0315,0.525064,-0.0339255,0.413313,-0.0915641,1.08299,0.442905,0.354184,0.886157,-0.308452,1.20874,0.525918,2.50768,1.43128,1.13094,1.70243,1.42779,1.9156,1.15587,1.07511,0.316681,0.0775825,0.105354,-0.271533,-0.111493,0.0262756,0.719348,0.874131,1.13791,0.244063,-0.0748537,0.578697,0.603402,-0.176011,-0.176959,0.306272,-1.588,-0.437327,0.52399,0.637186,1.06677,1.1768,-0.110138,0.736292,0.180039,0.926202,1.57124,0.998157,0.279026,-0.274657,0.320145,0.114955,0.051775,0.0636398,0.467216,0.238735,0.8955,-0.403643,-0.919345,0.415668,-0.113134,0.319994,0.353736,-1.14212,-1.59472,-0.283181,-0.265028,-0.347329,0.786996,0.353386,0.456761,0.925724,0.434255,-0.290105,0.987439,0.44942,0.0878206,-0.302776,-0.0202471,0.0623241,0.0701658,0.552334,0.393654,0.689602,0.315058,-0.453919,0.659201,0.697371,0.044785,1.17508,1.06362,0.0212694,-0.563255,0.58712,-1.04778,-0.495346,0.42071,-0.496875,-0.0868097,-1.07347,-0.552362,-0.898936,-0.120832,0.213579,0.453047,0.0890173,-0.0353245,0.128462,-0.333212,-0.00548542,0.655963,0.524402,-0.0305548,0.184581,0.180365,1.1887,0.422125,0.568135,1.04074,0.466848,-0.83723,-0.0482727,-0.977853,-0.289842,-0.163848,0.0247805,-0.593982,-1.20254,-0.264806,-0.596469,0.323847,0.358057,-0.0168741,-0.286933,-0.168599,0.379937,0.145744,0.194932,0.717986,0.696582,1.00864,0.629862,0.679475,0.538471,0.039378,0.709483,-0.0799567,-1.24857,0.35595,0.329199,0.154948,0.31576,0.0133066,0.208673,-0.664862,-1.30524,-0.735769,-0.483183,-0.299219,0.563461,0.156336,-0.0216542,0.410031,0.256446,-0.3829,0.144948,0.105646,0.282989,0.0462948,0.250406,0.104358,0.0997435,0.400217,-1.13095,0.0606863,-0.905569,-0.234866,0.636971,-0.408952,1.03463,-0.141163,0.870491,-0.0976152,-1.10312,-0.985644,-0.951226,-0.296595,-0.39834,-0.274197,-0.0871578,-0.385342,0.217567,0.00207763,-0.0787315,-0.0266825,-0.0220363,0.548577,-0.0835619,0.475883,0.298587,0.0261662,-0.333649,0.443302,-1.06741,-1.37856,0.256144,0.48447,0.882364,-0.294995,-0.271132,-0.549378,-0.316323,-0.352318,-0.552671,0.25979,-0.881396,-0.757455,-0.219641,0.185537,0.205942,0.417009,0.367035,-0.15708,-0.460952,-0.0412505,-0.040449,1.50892,0.652223,-0.0922954,-0.144801,1.00673,0.878605,-1.25928,0.228315,-0.529433,-0.216523,0.498519,-0.153047,-0.0522779,0.188829,0.135837,0.195001,-0.878948,-0.947297,-0.116362,-0.18828,-0.418668,-0.05959,-0.134176,0.269301,0.241108,0.552029,-1.0811,-0.257013,-0.171892,-0.490664,-0.655427,-0.0774644,0.28971,-0.202905,-0.767633,-0.188379,0.888252,0.553632,-0.201904,-0.657648,-0.0665729,-0.241452,0.157809,0.458822,-0.829219,-0.401029,-0.415988,0.351857,-0.258629,0.49098,-0.0880465,0.692817,0.843859,0.542519,0.588879,-0.228887,-0.457922,-0.216596,0.742858,-0.154821,-1.60187,-0.226144,-1.42443,-0.0643602,0.186004,-0.578464,0.00388276,1.02083,0.678781,0.398437,-0.235257,-0.813743,-1.79083,-0.419304,0.159085,0.249918,-0.0668855,-0.387823,0.244329,-0.15939,0.017024,1.27557,1.69844,0.465946,1.39464,0.0740974,0.776242,-0.877848,-1.17625,-0.98165,-0.176206,-0.790812,-1.16546,-0.530794,-1.21048,-0.318542,-0.669207,-0.38812,0.175997,-0.853556,-0.386375,-0.188442,-0.251189,0.0147646,0.411863,-0.374312,0.0976744,-0.404315,-0.349938,0.377175,0.903766,0.152797,0.59429,-0.596754,-1.31685,-0.859407,-0.905041,-0.53934,-1.05292,-0.560032,-0.752485,-0.0897622,-0.601018,0.502135,0.480552,0.449503,0.361085,-0.898827,-0.495581,0.163025,-0.474467,0.428403,0.0987053,0.223734,0.136053,-0.44426,0.0306849,-0.207678,0.414177,-0.473935,-0.0592147,-0.216986,-0.60891,-0.29426,-0.800102,-0.451423,-0.519501,0.122957,-0.51056,0.293306,-0.0908474,-0.452665,0.0236086,-0.397929,0.789579,0.187043,0.603688,-0.101001,-0.430488,-0.415067,0.00834304,0.221763,0.346202,0.0894436,0.0650776,-0.408596,-0.198132,0.0533563,-0.392692,-0.949727,-0.492248,0.985321,0.337318,0.0556828,0.648886,-0.249248,0.291684,0.217079,0.157867,0.434809,0.0258591,0.716527,1.13088,0.917062,0.813817,-0.31989,0.0467385,-0.272301,-0.363247,0.0636769,-0.115427,-0.0270149,0.511638,-0.325366,-0.515615,1.20464,0.739443,1.02967,0.813923,0.550433,1.28288,1.60272,1.1085,1.23666,1.82301,0.54495,0.74111,0.153231,0.642495,0.678149,0.108455,0.803877,-0.185223,-0.0913863,-0.0036023,-0.325404,0.0313578,-0.398373,-0.175561,0.388127,0.325805,0.175988,0.386518,0.660027,0.638713,0.220667,-0.242814,1.516,1.58791,1.94153,0.730207,1.37053,0.550718,1.38388,0.398324,0.373538,0.583257,0.52964,0.120598,0.39283,0.0870584,0.160532,-0.420922,0.301294,-0.237846,0.0357219,0.265492,-0.0721134,0.446975,0.128122,0.654919,0.856053,1.05426,0.50312,1.07172,1.00621,0.928569,1.23687,0.174482,1.58479,0.557537,0.420459,0.570228,0.286597,-0.0997308,0.311613,0.0167817,-0.152541,-0.204158,0.0351561,0.236137,0.136158,-0.488983,0.0190283,-0.344844,-0.407817,-0.229692,0.214997,-0.299416,0.353062,0.0266951,0.377157,0.579776,-0.0583928,0.379873,0.276874,0.523747,0.277028,0.0382221,0.575098,0.481456,0.437891,-0.274513,0.382568,0.165753,-0.274697,-0.187381,0.404325,0.140706,-0.323847,0.499451,0.249931,0.309595,-0.21923,0.166636,-0.135697,-0.0438211,0.393078,-0.346224,-0.476979,0.405058,-0.101868,-0.0980239,0.100858,-0.244568,-0.232146,-0.157878,-0.00196159,-0.307556,0.045061,-0.468642,-0.159619,0.167274,0.127175,-0.238182,-0.0746635,-0.0300455,-0.482879,
0.472716,0.394406,0.0253456,0.160573,-0.478118,0.083697,0.120533,0.364437,-0.49353,0.147969,0.453856,0.0459761,-0.361744,-0.438362,-0.227817,0.452875,0.207694,-0.148,-0.202475,0.0106052,-0.332636,-0.0254372,0.223869,0.453032,-0.134846,-0.262322,0.0701468,-0.107837,0.459563,-0.318018,-0.333949,-0.016068,0.0476751,-0.17873,0.0546843,-0.154527,0.0325173,0.146918,0.0921585,-0.120686,-0.213597,0.317147,-0.0432172,0.0367206,0.141491,0.45134,-0.171926,-0.384363,0.420926,0.187799,0.04533,0.297782,0.151997,-0.165029,-0.284356,-0.288018,0.0261086,0.0194861,0.196342,-0.197971,0.254521,-0.458533,-0.152506,-0.409213,0.483354,0.507216,-0.240746,-0.145643,0.566957,-0.487597,-0.227369,-0.37449,-0.195915,-0.155464,0.267292,-0.344301,-0.289256,-0.111915,-0.186497,-0.364006,-0.225861,-0.106532,0.0267495,-0.298853,0.242363,-0.0340739,0.12414,-0.0124856,-0.244533,-0.321536,-0.168705,0.544855,0.260094,0.526153,0.0764798,-0.0306275,0.0581427,0.320244,-0.596357,-0.303027,0.0507111,-0.541079,-0.372621,-1.06148,-1.03198,-0.0750434,0.245343,-0.402063,-0.367407,-0.160007,0.4904,-0.276421,0.0805536,0.412686,-0.152447,-0.373282,0.014464,0.29304,0.263493,0.586855,1.17734,0.431355,0.0867064,-0.276617,-0.125875,-0.462749,0.956538,0.106356,0.172724,0.239929,0.22878,0.224962,0.443756,-0.370673,-0.26009,-0.800242,-0.860477,-0.0241922,-0.489913,-0.10754,0.463927,0.312128,-0.102025,-0.235363,-0.175286,-0.248884,0.514987,0.383009,-0.640111,-0.332966,-0.24514,0.676399,0.023771,-0.390745,0.593484,-0.0742598,-0.770413,-0.447088,0.636821,-0.779066,-0.960106,0.120213,-0.42222,-0.984428,-0.965077,-1.06219,0.109001,-0.451157,-0.315485,0.299432,0.259484,-0.141391,-0.455922,-0.0282805,0.0746351,0.730659,-0.101847,-1.11699,-0.418694,0.184573,0.166607,-0.632157,-0.0245877,1.40095,0.83461,-0.139786,0.0750257,-0.950684,-0.526494,0.924069,0.203764,-0.542006,-0.756861,-0.990084,-0.0479931,-0.275277,0.408933,-0.452354,0.473265,-0.0507034,-0.704408,-0.516024,0.199493,0.0767614,-0.277378,0.0765991,0.136744,-0.0843047,-0.150217,0.0318374,-0.912251,0.346,-0.337992,0.579585,0.296667,-0.859181,0.107573,-0.339798,0.292848,-0.608442,-1.11359,-1.5265,-0.698563,0.182724,-0.00755699,-0.272685,-0.190102,-0.464543,-0.550103,-0.553623,0.403628,0.26162,0.284932,0.561335,-0.0505486,-0.0841643,0.547009,0.0320502,-0.906146,0.611173,-0.426998,-0.150911,0.00118897,-0.752353,-0.146163,-0.822208,0.0424584,-0.414325,0.314365,0.0327403,0.274568,-0.385999,0.307967,0.295858,-0.101583,0.0643298,-0.0542743,0.23116,-0.597767,-0.0681817,-0.143748,0.870998,0.57989,0.929953,0.82962,0.923147,0.521917,-0.855461,0.183179,0.414004,0.0279958,1.38786,0.52093,0.150841,0.616424,1.09206,1.14609,0.284149,-0.178286,-0.188284,-0.154384,0.249302,0.301937,-0.606073,-0.777199,0.765984,0.082633,0.415211,0.533463,0.337912,0.638863,0.786073,1.42571,-0.243614,0.734942,0.374323,-0.641398,0.532903,1.55424,1.27838,1.00499,1.82871,0.853666,2.6039,0.252961,-0.29697,-0.333942,0.482635,0.239838,0.249654,-0.445181,-0.815033,-0.805758,1.09468,0.039099,1.84945,0.116816,0.412021,0.17168,0.634423,0.227071,0.180287,0.902549,-0.360156,-0.494666,-0.820409,-1.27098,-0.964495,0.586498,1.84554,1.54146,1.91597,1.36592,0.200284,-0.0320992,-0.0699929,0.00472501,0.372353,0.136528,-0.201369,-0.270018,-0.106438,0.542421,0.843377,0.422789,1.1774,-0.784219,-0.462091,0.0764963,-0.0589122,0.665334,-1.1061,-0.756297,-0.674896,-0.432417,-1.19208,-0.380444,0.343882,0.463818,1.03208,1.07833,0.120148,0.362644,0.164934,-0.340937,-0.402878,0.00388114,-0.884127,-0.0360697,0.472302,-0.0626204,0.0213568,0.541655,0.688144,0.645822,0.0673112,-0.421115,-0.330882,0.111867,0.0150612,0.105991,-1.44022,-0.505041,-0.496432,0.173226,0.0254737,-0.671533,0.0522411,-0.326999,-0.101298,-0.292033,-0.0350995,-0.0278229,-0.0526166,-0.367617,-0.320356,0.0443965,0.214347,1.22699,-0.162267,-0.0818682,-0.373863,0.481791,1.06811,0.297827,-0.395143,-0.476599,-0.180989,-0.685113,-0.370803,-1.08423,-0.624168,-1.09911,-0.209791,-0.663314,-0.550444,-0.716612,0.575141,0.65442,-0.212987,-0.451965,-0.413265,0.0523715,-0.525211,0.126409,0.567877,0.0213249,0.997845,0.539619,0.371669,0.331918,0.393067,1.14464,-0.109252,0.205333,-0.555144,-0.634784,-0.775068,-0.674807,-0.344362,-1.4937,-0.370428,-0.786886,-1.073,-0.867886,0.64276,-0.173906,0.50016,0.465545,-0.182065,0.289812,-0.364881,-0.469701,0.786598,-0.311439,0.91502,1.88223,1.62024,0.702356,0.572191,0.74866,0.225136,0.19619,0.0106742,-0.860881,-0.537407,-0.602993,-1.22625,-0.396261,0.328246,-0.353725,0.180517,-0.712254,1.03211,0.685815,0.23237,0.19451,0.165325,0.417898,-0.315924,-0.672215,0.399556,-0.182334,-0.0267661,0.668911,1.10365,1.77208,1.65365,1.8913,-0.442417,-0.550059,-0.895732,-0.681215,-0.949717,-0.912036,-0.257164,-0.136071,0.443917,0.173884,-0.28472,0.218538,0.411284,0.0346672,0.164887,-0.494407,-0.454244,0.435167,0.172402,-0.641387,0.0929209,0.226737,0.101544,1.20053,1.46351,1.67755,1.23505,0.831564,-0.637179,-1.07133,-0.735859,-0.68946,-0.748024,-0.314275,0.306736,-0.217524,-1.04773,-0.604262,-1.31177,0.223954,0.510502,-0.440148,0.0118535,-0.406218,-0.228379,0.335839,-0.932482,-0.136634,-0.0852116,-0.370298,0.0692397,0.741007,-0.227963,0.8438,1.73569,-0.879109,-3.4845,-1.62402,-0.262372,-0.5053,0.447017,-0.395226,-1.05018,0.265181,0.451031,0.776946,-0.185524,-0.129644,0.427097,-0.187396,0.167369,0.131825,0.257291,0.0801956,-1.00427,-0.351509,0.326325,0.383441,0.436411,-0.363523,1.45455,2.2747,2.55452,0.223779,-1.74621,-0.614497,-0.0420531,-0.954991,-1.30852,-1.14896,-0.48843,0.3573,0.334956,-0.204026,0.166973,-0.0619322,0.576615,-0.111606,-0.0464647,0.476271,0.270441,0.268923,-0.0574834,0.313074,-0.249544,0.139433,0.707177,0.226117,1.28355,0.612841,1.48522,-1.1155,-0.188372,-1.18917,-1.10561,-1.02817,0.679285,-0.771313,0.0526136,0.529552,0.334658,0.0540793,-0.589803,-0.558057,0.0349798,0.23319,0.487213,-0.258981,-0.379717,-0.371186,-0.162832,0.163461,1.16212,1.03017,0.665219,0.534641,0.971453,0.706821,0.0322926,0.836301,0.351224,-1.52308,-0.600352,-0.974323,-0.306871,-0.722674,-0.412996,-0.256885,0.564747,-0.037222,-0.484892,0.138317,-0.137159,-0.192797,0.385006,-0.0404523,0.000595111,0.0235873,-0.703499,-0.847638,0.0738342,0.435928,-0.133268,0.757725,1.32385,-0.250312,0.0476328,0.189659,-0.221716,0.0221997,-1.09154,-0.711406,-0.823291,-1.54414,-0.0846972,-0.83621,-0.348051,0.242971,0.0795405,-0.254113,0.231249,-0.429484,-0.420103,0.0533311,-0.0136876,0.325575,-0.664411,-1.00437,-0.833229,-1.16498,-0.297734,-0.113773,-0.245558,0.079044,0.443627,0.609245,-0.109567,-0.289565,-0.458995,0.166833,-1.70365,-1.14655,-0.603677,-0.545514,-0.765194,-0.575122,-0.420558,-0.305851,-0.169746,-0.31036,-0.224113,-0.173971,-0.0799127,-0.233138,-0.25381,-0.129563,-0.564639,-0.334423,-1.50108,-2.32686,-1.07903,-0.225102,-0.23653,-0.867667,-0.458192,-0.861091,-0.502998,-0.840993,-1.54336,-1.97712,-0.6987,-0.162541,-0.809503,-0.77596,0.0482866,0.01083,0.136291,0.45252,-0.339686,-0.298486,-0.427305,0.376553,0.0052231,-0.424964,-0.103624,-0.278284,-0.00486211,-0.481732,-0.768102,-0.0829676,-0.632717,-0.617872,-1.07499,-1.24705,-0.705726,-0.768631,-0.210859,-0.721484,-0.0582416,-0.187754,0.290015,0.406951,0.0164729,-0.443876,0.375065,0.133045,0.46176,0.425077,-0.0850093,0.121479,-0.4747,-0.414398,0.0457583,-0.20646,0.3691,0.0313219,0.00979168,0.317345,0.234133,-0.167345,-0.120271,-0.43544,0.352258,0.119818,-0.2931,0.0521242,-0.293264,0.185714,-0.446824,-0.0860134,0.342477,-0.119831,0.29516,-0.431272,-0.052385,
0.445891,-0.155171,0.0718863,0.304041,-0.187704,0.338984,0.108112,-0.25692,-0.458342,-0.0571459,0.125355,-0.410764,0.155297,0.108789,0.218463,-0.297023,0.136525,-0.3081,0.406644,-0.226432,-0.322077,-0.166494,-0.392087,-0.480346,-0.295984,0.0185705,0.0927915,0.454772,0.200369,0.21279,-0.303064,0.372982,0.380643,0.486382,-0.424471,0.213157,-0.256314,0.0542806,-0.212915,0.448075,0.424255,-0.0398805,0.463003,-0.28893,0.0815506,-0.145752,-0.177308,-0.351495,0.22778,0.464462,0.0296265,-0.202815,-0.179037,0.0907163,-0.20687,0.0469527,0.0141453,-0.00941496,-0.264702,0.0442476,0.205146,-0.407761,-0.0795373,0.489258,0.479006,-0.126654,-0.0449029,0.445014,0.381237,0.569546,0.324372,0.0804247,0.0519549,0.319147,-0.168966,0.391023,0.888404,-0.201061,-0.128296,-0.0516999,0.351242,-0.408742,-0.493561,0.393307,-0.157643,-0.0742973,-0.433552,-0.430982,0.473023,-0.241334,0.597658,0.392919,0.51108,0.468726,-0.263222,0.0177812,-0.828711,-0.0884806,0.240479,0.319957,0.640185,0.712603,0.275723,0.579552,-0.374433,0.486091,-0.125,0.321364,-0.167647,-0.249933,-0.385403,0.460936,-0.433744,-0.473849,-0.30784,-0.218624,0.161003,0.426153,0.751881,1.0705,0.453544,-0.238805,-0.199661,-1.22891,-0.994846,-0.505053,-1.01001,-1.54993,0.605479,0.152506,-0.3848,0.749721,1.13995,0.601973,0.654975,0.689965,0.574826,-0.225532,-0.363171,-0.374759,0.0655385,-0.28103,0.405931,-0.333141,0.108857,-0.469522,0.0435584,-0.0223953,0.56027,-0.0712295,-0.106113,-0.455053,-0.0361298,-0.995235,0.605608,-0.9041,-0.9257,-0.010628,-0.453196,1.13086,0.555936,0.778422,1.40237,0.9411,0.539202,-0.299393,-0.0197933,0.231819,-0.215659,0.0264059,-0.243869,-0.213419,-0.783665,-0.536133,0.245382,-0.371568,-0.82013,-0.808569,-1.14391,-0.405733,0.0245039,-0.766549,0.151808,0.0212127,-0.317581,0.2315,-0.712598,0.440916,-0.433643,-0.399612,0.516324,0.649259,0.47695,0.365655,-0.0325358,0.38062,0.0107272,-0.39962,-0.239353,-0.672218,-1.4065,-1.44785,-0.916757,-0.467533,-0.0177862,-0.783629,-0.0882442,-0.818045,-0.581136,-0.885612,-0.101368,0.199655,-0.289973,-0.115823,-0.258061,0.108965,-0.531103,-1.18399,-0.501217,0.638925,0.816224,-0.238625,-0.386978,-0.317659,-0.415631,-0.0374654,0.23439,-0.180096,-1.31354,-1.40561,-0.137626,-0.300719,-0.215311,0.260057,-1.7035,-0.816441,-1.33051,-1.26004,0.50509,-0.59515,-0.16073,-0.887778,-1.16786,-0.530701,-1.28912,-0.761445,-0.676154,0.955775,1.15944,0.264905,-0.106513,0.090155,0.272532,-0.170309,-0.459676,-0.76834,-0.947422,-1.43406,0.306801,0.117159,0.200571,-0.658625,0.374904,-0.757002,-1.59655,-0.353556,-1.65062,-0.514943,0.379755,-0.476432,-1.18459,-1.45012,-0.128747,-0.309474,-0.535816,-0.0859563,-0.580796,-0.101855,-0.204968,0.263348,0.470899,-0.247608,-0.559253,-0.573302,-0.855839,-0.705752,-0.0940389,-0.474244,0.531173,0.543652,0.416337,-0.124833,-0.286537,-2.85404,-2.66996,-1.90907,-2.16073,-2.06282,-0.903235,-0.722823,-0.879467,-1.09383,-0.547907,-0.487155,0.157166,-0.598146,0.0371702,-0.0828699,-0.448327,0.0278636,-0.765449,-0.374037,-0.306455,0.606866,0.534946,0.103887,0.198766,0.709585,0.614739,0.566822,-1.02875,-2.8904,-1.98519,-1.61611,-0.705732,-0.584599,0.526592,0.402402,-0.940714,-0.402421,-0.20845,-0.0955372,0.741804,-0.232396,-0.300068,-0.113837,0.4726,-0.301257,0.328093,-0.323608,0.398534,1.52039,1.24369,0.698929,1.23365,0.251361,1.45672,2.45111,2.49285,-1.44647,-0.540961,0.34124,1.08268,0.676278,0.546855,1.60033,0.118035,1.55589,1.22266,0.762725,0.0174578,0.533091,-0.346292,0.289618,-0.0676888,0.226686,-0.100498,-0.223525,0.156899,-0.0115351,0.30804,1.59098,1.52133,1.11988,1.21473,1.89389,3.39628,1.33018,-0.919877,1.17753,0.269258,0.0126407,-0.570459,0.291791,-0.0537437,0.335203,1.00376,-0.0303369,0.230529,0.100882,-0.184036,0.403167,-0.238204,-0.370515,0.135072,0.30547,0.243234,0.169433,0.571537,0.476284,1.54721,1.3509,0.499313,1.60116,1.40896,0.0697364,0.542202,0.735006,-0.417895,-0.187834,-0.00273202,-0.302364,0.120715,0.0768351,0.11874,0.160832,-0.28919,0.0576948,-0.0358133,0.469538,-0.2158,0.278218,-0.15602,0.157616,-0.153759,0.0282283,0.545716,0.27214,0.252939,-0.19899,0.321664,0.517874,1.54086,0.177289,1.25233,-0.197804,1.15742,0.140316,0.322375,-0.345558,-0.879946,-0.177938,0.699009,-0.165944,-0.686104,-0.885498,-0.324622,-0.558878,-0.147183,-0.48383,0.053344,0.392555,-0.355662,0.466712,0.132746,-0.884423,0.320684,0.484188,0.726274,0.802168,0.999169,0.332001,0.459033,0.585811,0.378166,0.183222,0.777852,-0.438494,-0.362065,-0.439936,-0.364208,-0.494795,-0.65223,-0.685247,-0.264414,-0.569953,0.290338,0.151965,0.527944,-0.110476,-0.277691,-0.532217,0.401192,0.382483,0.809,-0.808603,0.588891,2.02875,0.824045,1.27892,0.287361,0.324495,0.236785,-0.430769,0.018214,-0.189488,0.384212,0.276172,0.0128799,-0.24557,-0.858013,-1.40979,-0.477171,-0.188127,0.446662,-0.29155,0.194838,0.219789,-0.489078,-0.059471,0.657484,-0.618716,-0.883743,0.165096,0.786995,-0.534215,-0.060024,0.832919,-0.543966,0.0821244,-0.0562861,-0.789667,-0.110439,0.822428,-0.296151,-0.180115,-0.354388,-0.314085,-0.1021,-1.18317,-0.0122836,0.411124,-0.400844,-0.577758,-0.22513,-0.832911,-0.962314,-0.316106,0.54569,0.189635,-0.636163,-1.07807,-0.658659,-0.79629,-0.0420636,0.00448754,0.467303,0.490372,0.462336,0.2441,0.0754805,0.249212,-0.140818,-0.220456,0.220741,0.0794662,0.194164,-0.0509037,-0.013884,0.395717,-0.102039,0.140257,-0.137951,-0.412761,-0.65832,-0.998564,-0.320098,-0.493009,-0.278043,-0.734562,0.172986,0.585057,0.115001,0.175045,-0.50986,1.17237,0.0899791,0.119756,0.208637,0.212848,0.0653345,-0.0883256,0.13643,0.505989,-0.354857,-0.074765,-0.399812,-0.345941,-0.398065,-0.248187,-0.395373,-0.488095,-0.0510966,-0.664541,-1.12847,-0.605994,-0.404103,0.49679,0.110567,-0.993785,0.0626237,1.29328,-0.00758931,0.264113,-0.158556,-0.0788022,0.827653,0.203794,0.715317,0.457747,0.286401,0.714648,-0.722375,-0.762629,-0.510367,-0.452816,0.297605,0.154958,0.0755518,-0.487849,0.0772248,-0.749311,-1.12148,-1.3879,-0.31911,-0.251444,0.104437,-0.271406,-0.674396,0.459074,-0.390125,0.259837,0.336319,0.227869,0.178137,-0.0217472,0.488616,0.669025,-0.0784271,0.452486,-0.0628128,-0.509436,0.269775,-0.16005,0.335017,-0.0580004,0.0891593,0.242852,-0.163983,-0.610457,-0.281524,-0.514338,0.724426,0.0262825,-0.337716,-0.3665,0.349304,-0.0361681,0.455308,-0.164321,0.418615,0.628817,0.895503,0.395791,0.906993,0.757701,0.702731,0.136263,0.0568735,-0.0864788,-0.42563,0.35165,0.195212,0.353572,0.352225,-0.252996,-0.13598,-0.320479,-0.0506915,-0.448548,-0.16357,-0.705319,0.388383,0.987023,0.335946,-0.444522,-0.799925,-1.03687,0.381823,-0.179076,0.507687,1.37084,0.905067,1.14069,0.458046,-0.0474488,0.215812,0.218848,-0.052952,-0.0827204,0.00727866,-0.400754,-0.0545445,-0.0674849,0.308198,-0.078641,0.401368,0.351484,0.0616754,0.255308,0.279332,-0.182389,-1.24528,0.0647445,0.400351,0.0995423,-0.562424,-0.146425,-0.0915877,-0.675817,0.790494,0.221562,0.0779518,-0.104509,-0.21875,-0.236113,0.357864,-0.282891,-0.0647755,-0.426603,-0.473083,0.326422,-0.228859,-0.0204782,0.488814,0.1096,0.78073,0.519405,0.0213627,0.789065,1.00829,0.854387,0.962572,-0.350661,-0.116805,0.275245,-0.21773,-0.963891,0.0557532,0.625578,-0.200334,0.0991443,0.202448,0.385372,0.261254,-0.423399,-0.347652,0.30636,0.360561,-0.329493,0.259992,-0.377014,-0.431513,-0.232893,-0.274183,-0.333483,0.117797,-0.551248,0.286247,0.105255,0.129871,0.079669,0.0389538,0.15111,-0.651695,0.0250252,0.286119,-0.452048,0.122857,-0.0280614,-0.113208,0.0533311,0.34283,0.331355,
-0.37756,-0.00379955,-0.417539,-0.145253,-0.0169225,0.146992,0.355922,0.0856502,-0.0487228,0.316279,0.456481,0.468657,0.219144,-0.149944,0.0787227,0.221183,0.230399,-0.37112,0.447569,-0.428404,0.0916013,0.458281,0.269341,-0.469878,-0.116138,0.259453,-0.213218,-0.150502,0.406186,-0.0357524,-0.281396,0.331233,-0.11861,-0.478392,-0.135003,0.133739,-0.357832,-0.0817444,-0.343118,0.228175,0.3478,-0.378076,0.494024,-0.185717,-0.0209427,0.408842,-0.195024,0.0525906,0.280104,-0.179768,-0.439226,-0.107994,0.0303201,0.262932,0.00840785,-0.193014,-0.288141,0.378018,-0.11092,0.371907,-0.258025,0.0768302,-0.461374,-0.154351,-0.0605941,-0.0860298,-0.468333,-0.271569,-0.945543,-0.747912,-0.130634,0.209339,-0.644712,-0.694648,0.190152,0.184446,0.122814,-0.103313,-0.143786,-0.159811,-0.389505,0.0146242,0.230644,-0.192373,0.409085,0.0854671,-0.312841,0.324057,-0.277911,0.471698,0.130016,-0.150164,0.0235563,-0.366778,-0.315577,0.0112215,0.096394,-0.260712,-0.553113,-0.540444,-1.17114,0.176701,0.229475,0.183247,0.435125,0.43934,0.590912,0.179597,-0.292064,0.137426,-0.235571,-0.0566576,0.223594,0.404965,0.175364,0.475783,0.076277,0.187631,-0.010758,0.444962,0.684126,0.065976,-0.0327276,0.68334,0.710948,0.250752,0.368606,1.70044,0.695914,0.02524,1.72554,0.40995,0.552437,0.793298,0.0212073,-0.014554,0.341228,-0.166872,-0.461008,0.379552,0.333308,0.211875,-0.0525363,-0.30345,0.032843,0.690498,0.493519,0.688236,0.0705191,0.602738,-0.782777,-0.100095,0.39439,-0.196372,0.479654,-0.896329,0.544952,-0.36496,-0.698623,-0.173819,0.285135,0.675815,0.171483,0.30428,0.0203905,0.131487,-0.318753,0.104566,-0.417417,0.172392,-0.0672124,0.0273681,0.387015,0.37865,0.779318,-0.276979,0.94741,0.918771,1.23919,0.685374,0.552791,-0.0392882,-0.0496144,-0.163182,-0.391232,0.408746,0.484447,-0.04926,-0.260176,0.916851,0.657026,0.462013,0.734564,0.579459,-0.182981,0.310682,-0.464721,0.46174,-0.599821,0.700941,0.402034,0.379528,0.445937,0.324581,-0.266512,-0.56979,0.0781727,-0.395275,0.403805,-0.196578,-0.390717,1.23878,1.45165,0.599223,-0.738902,0.0245432,0.660557,-0.359025,-0.202892,0.99607,1.0526,0.892417,0.513828,-0.229543,0.0899156,-0.250479,-0.215638,0.270919,1.03624,0.345826,0.778923,0.23632,0.914765,1.44314,1.2219,0.43867,0.296919,1.34479,-0.935584,0.484765,0.108108,-0.910319,0.827435,0.70668,0.64377,0.452398,0.982408,1.31936,2.3534,1.0006,0.042391,0.346934,-0.166958,0.178267,0.284557,0.124536,0.776809,0.534235,0.857048,0.767413,0.235769,0.631756,0.0140354,-0.172217,0.539461,-0.0874327,0.0411135,-0.0409401,-0.62617,-0.182282,0.19913,0.478429,-0.273172,0.609917,1.144,0.556075,1.18174,1.38261,0.179794,0.124124,-0.018988,0.124889,-0.126962,0.796919,0.869206,-0.216398,-1.07281,0.244059,0.441159,-0.255617,1.07249,-0.27418,0.813169,1.45724,0.543911,0.860593,0.628117,-0.42681,-0.130927,0.30053,0.561917,-0.121764,0.305537,0.622466,0.18421,1.38956,0.540709,0.0473599,-0.0915559,-0.2388,0.376052,-0.0484558,0.377003,-0.658838,-1.76127,-0.0390331,0.0419741,0.922665,-0.482825,0.335577,0.287384,0.593314,1.48537,1.83926,0.943675,1.12438,0.0916469,-0.818928,1.25495,0.15336,0.327036,1.73331,1.38346,0.868218,0.44154,-0.187928,0.203438,-0.360137,0.637903,0.656388,0.420187,0.410226,-0.636431,0.756903,0.299472,0.339017,0.652186,0.762111,0.938905,0.52027,1.49509,1.31915,0.74809,0.381543,-0.166396,-0.428685,0.357593,0.697879,-0.773956,0.561754,-0.263923,-0.279105,-0.213216,-0.43346,0.334594,-0.432001,-0.210717,0.494072,-0.504064,-0.61556,-0.920581,-0.636191,0.046136,1.21932,-1.05334,0.872519,0.482477,1.09118,0.781608,0.746857,0.877349,0.896486,0.084773,0.270505,1.39957,-0.120866,-1.14768,-0.560062,-2.09574,0.299872,0.00566036,-0.230601,-0.305989,0.362235,-0.132945,-0.224484,-0.15027,-1.53424,-1.92083,-1.88385,-1.33277,-1.62506,-0.117103,0.105524,0.309258,0.752864,0.856706,1.4675,0.565182,1.29527,0.307948,0.0733273,-0.512751,0.184279,-0.757708,-1.37123,-0.810009,-0.607039,-0.422762,-0.0346778,0.228173,-0.131451,0.0900531,-0.191534,0.0722333,-1.37899,-1.8038,-3.09275,-3.639,-2.20752,-1.19857,-0.927773,0.151455,0.447447,0.865809,0.75122,0.168072,-0.775,0.669496,0.224728,-0.0446322,0.0887734,0.389698,0.22355,0.0791162,-0.29805,-0.197023,-0.437238,0.374997,0.00311661,-0.478816,0.112329,-0.553266,0.114565,-0.776186,-1.47964,-1.43232,-0.891408,-1.54849,-2.7628,-0.851192,0.732245,1.16142,0.811455,-0.408296,-0.692043,-0.70404,-0.754166,-1.11726,0.391482,-0.281934,-0.289922,-0.877295,-1.18457,-0.426756,-0.324625,-0.473174,0.210788,0.398475,0.756054,0.900746,0.121779,0.545057,-0.282069,-0.390924,-1.36311,-1.56372,-1.61826,-1.46261,-0.0366738,0.279448,0.614042,-0.0316902,-0.387764,-0.405975,-0.209887,-0.549659,0.96594,-0.293733,0.22792,-0.568207,-1.1089,-0.632407,0.12263,-0.261313,0.246997,0.268609,0.542111,0.213957,-0.769926,0.262171,0.480597,0.0963667,-1.09041,-0.71534,-1.66187,-1.96661,-1.24127,-0.772301,0.110525,-1.28721,0.0358133,-0.232238,-0.0113943,0.26806,0.504425,-0.876526,-0.445351,-1.39085,-0.514896,-0.216305,0.278895,-0.10853,-0.458207,-0.0520537,0.639793,0.338205,0.458167,0.0840338,0.0908894,-0.185909,0.275985,0.0324514,-0.264347,-1.50784,-0.633801,-1.0532,-0.0797925,-0.281523,0.325454,-0.991143,-0.204348,-0.00388516,-0.524788,-0.260333,0.0969531,-1.14507,-0.10571,-0.332867,0.109671,0.0562609,0.0108673,-0.211343,0.444171,-1.31309,-0.93137,0.0946586,-0.458212,0.444491,-0.965294,-0.164418,-0.818971,-0.343996,-0.561575,-0.383248,0.133036,-1.60317,-0.357129,-0.726865,-0.811267,-0.403227,-0.47622,-0.269587,-1.05863,-1.48473,0.0374834,-0.339105,0.245914,0.233542,-0.325008,0.16814,-0.659846,-0.379336,-0.959825,0.192684,-0.38961,0.0863886,-0.105258,-0.0691894,-0.246222,0.10002,-0.538425,-0.0345282,-0.526323,-1.05163,-0.108869,0.321294,-0.727607,0.190051,-0.253159,-0.732684,-1.26457,-1.05658,-0.529691,0.296224,0.383084,0.230216,-0.0495132,-0.155138,-0.583335,-0.439581,-0.886631,-0.0511021,-0.679005,-1.21969,-0.975091,0.0246818,-0.950653,-0.566785,-0.0174779,0.0457473,-0.450632,-0.44311,0.279339,-1.05366,-0.649277,-1.1636,-1.79131,-1.05895,-1.54309,-0.879367,-0.517194,-0.0906708,0.0265968,-0.132527,-0.143666,0.407705,0.157153,0.139604,-0.385597,-0.58397,0.100138,-0.425459,-0.758017,-0.201701,-0.21837,0.93924,0.324714,-0.341901,0.44701,1.10821,0.816266,0.0296032,0.0566433,-0.606536,-1.89855,-1.90753,-1.575,-0.778256,-0.195289,-0.199826,-0.471221,0.2463,0.116657,0.342467,0.319295,0.000839041,0.946758,0.678209,1.12998,0.403708,0.172923,1.7904,1.3692,0.116389,0.0119761,1.21376,1.28497,0.385731,0.826684,0.928551,0.48216,-0.631294,-1.4476,-0.403193,-0.660755,-0.538374,0.159405,0.253071,0.033433,0.28811,0.407895,-0.0543459,0.494199,0.411991,0.124795,0.121587,0.798545,1.69717,2.30028,2.76789,3.28954,2.391,2.343,2.4304,2.47743,1.54789,1.26525,1.79842,1.59748,0.138099,-0.0451489,-0.286096,-0.382745,-0.22584,0.142233,0.417116,0.422666,0.270043,-0.371334,-0.0601672,0.0770134,0.256315,0.0415928,-0.00481437,0.075736,0.293316,0.58189,0.134466,0.364572,0.15155,-0.544429,0.987413,0.880042,0.902758,0.984867,0.376527,0.667698,-0.202529,-0.358055,0.0248419,-0.422691,0.465285,0.0768964,0.256279,-0.140919,-0.427274,-0.468993,-0.138234,0.242576,-0.487635,0.379314,-0.448053,0.00431056,0.0813027,0.402519,0.48363,-0.0734866,0.00143023,-0.338278,0.0553512,0.186248,0.579736,0.0252532,-0.352099,0.420456,-0.102318,0.0781052,0.528372,0.106183,-0.468505,0.231742,0.352718,0.017777,
0.360073,-0.443327,0.0888546,0.24865,-0.367367,-0.00627155,-0.437773,-0.171438,-0.167776,-0.241508,-0.367733,0.160176,0.308073,-0.36803,-0.029741,-0.312983,-0.143208,0.341853,-0.460021,-0.423032,0.297815,-0.0382855,0.0255287,-0.436613,-0.426084,-0.266137,-0.0123753,-0.398801,0.408811,0.222221,0.0298929,0.493408,0.0521106,0.201682,-0.244101,0.145037,0.150946,0.186364,-0.21987,-0.338581,0.380165,0.0859621,-0.0882099,-0.0163071,-0.303826,0.275013,-0.0668901,0.227017,0.481212,-0.18169,-0.136261,0.101888,0.126545,-0.406552,-0.207877,0.231254,-0.191977,-0.103259,0.168874,0.251035,0.269487,0.0379197,-0.0954228,0.357113,-0.300045,-0.0648549,-0.274942,0.124715,0.466612,0.0317191,-0.155113,-0.585369,-0.371436,-0.125237,-0.0319671,0.0166998,-0.0734464,-0.00657302,0.00819703,-0.363708,0.196897,-0.0597424,0.420499,0.311762,-0.254051,0.315973,-0.04688,0.0612932,0.0961925,0.38711,-0.114164,-0.226433,0.231031,-0.404299,0.0602841,-0.910082,-0.910076,-1.97592,-2.6417,-1.62864,-2.0131,-1.04354,-0.858252,-0.40079,-0.980813,0.0359504,0.0394506,0.0571002,-0.562586,-0.108832,0.172923,-0.044145,0.103565,-0.323725,-0.20129,0.305909,0.241948,0.0879594,-0.300064,0.597676,-0.398634,-0.239898,-0.762783,-1.35847,-1.41254,-2.17464,-0.927158,-0.552949,-0.207921,-0.355327,-0.635442,-0.620057,0.217117,0.07776,-0.624532,0.0705646,-0.275207,-0.182478,-0.103937,-0.495795,0.0736259,-0.347285,0.0515848,0.0546531,-0.039389,-0.0341515,-0.281008,0.240052,-0.713767,-1.30105,-1.3436,-1.00537,-2.41789,-1.79188,0.201698,0.52379,0.430025,-0.571196,-0.995212,-0.513257,0.673828,0.538123,0.361316,0.72807,0.455273,-0.718859,-0.176808,0.212308,-0.476104,0.18451,0.17686,0.111475,-0.0388966,-0.225775,0.0577737,-0.202406,-0.905653,-1.09908,-1.19971,-1.48707,-2.18511,-1.33671,0.276481,-0.937666,-0.806982,0.757362,-0.375326,-0.451685,-0.75008,-0.498359,0.431679,0.291518,-0.198372,-0.895494,0.26931,0.225083,0.323176,0.368593,0.158954,0.478416,0.244881,-0.156249,-0.029382,-0.834796,-0.949455,-0.505266,-0.713931,-2.12687,-1.48808,-0.774368,0.65868,-0.132706,-0.702759,-0.946153,-2.03908,0.290636,-0.0785618,-0.687746,-0.172155,-0.309815,-0.990826,-0.663784,0.32302,0.325679,0.347872,0.325948,-0.086437,0.229678,0.425728,-0.551298,-0.192438,-0.677771,-0.460689,-0.840696,-0.843648,-1.58503,-2.66592,-0.572759,0.0281339,0.349165,-1.14097,0.787946,-0.303475,0.636061,-0.270653,0.591741,0.524079,-0.420823,0.440947,0.677656,0.288845,0.026991,0.395373,0.329452,0.115604,0.1916,-0.42023,0.109861,-0.038289,-0.268275,-0.667215,-0.554059,0.081179,-0.566869,-1.01969,0.634392,0.0255501,1.60555,3.13319,1.73359,0.85753,-0.00176101,-0.768971,0.0231957,0.754318,0.208475,1.14506,0.252596,-0.850326,-0.579546,-0.299223,0.111583,-0.314604,-0.489154,-0.481005,-0.380538,0.0213384,-0.592812,-1.13759,-0.539756,-0.163095,-0.675351,-0.392534,-0.273183,0.129174,2.39403,1.32472,0.989371,0.825287,0.798878,0.390646,0.42527,0.142037,0.802536,0.645296,0.6193,-0.439644,-0.176827,0.312589,-0.356128,-0.08546,0.520422,0.0210446,-0.0677906,-0.702213,-1.2813,-0.663102,-0.0554913,-0.428977,0.0897295,-1.00922,-0.171837,-0.045196,0.914912,-0.000414954,0.0930619,0.535455,0.539025,0.0469181,0.402821,-0.43602,0.55133,0.799897,0.15349,-0.439285,0.129305,0.0090487,0.242938,0.402273,0.227883,-0.400774,-0.19996,-0.0545679,0.763288,0.562599,0.293829,0.24843,-0.984956,0.290905,0.112144,-0.117452,1.17214,0.128137,-1.40686,-0.653975,-0.801706,-0.70452,-0.803951,-0.631768,-1.30159,-0.0115899,0.42128,-0.0068221,-0.139862,-0.00354821,0.356015,0.126377,0.38422,-0.325717,-0.67208,-0.471887,0.12041,0.127447,-0.748327,-0.3789,0.209964,0.625587,0.410421,0.367818,-0.163363,0.667803,0.0760285,-1.27712,-1.86427,-1.85101,-0.272965,-0.870325,-0.786711,-0.0210792,-0.399645,-0.117709,-0.478973,0.10033,-0.139247,-0.205588,-0.240652,0.060723,-0.12082,-0.0659702,0.115516,-0.195019,0.0868237,-0.690198,-0.267804,-0.100323,-0.146627,-0.523809,-0.981839,0.325046,0.155347,-1.45218,-0.972337,-0.893717,0.24335,-1.15739,-0.426737,0.29914,-0.0965769,0.233796,0.0052991,-0.330226,0.230486,0.00849229,0.407339,-0.00913498,-0.0606738,0.131618,0.712665,0.968273,0.19114,-0.69966,-0.502818,0.2036,-0.00812836,-0.0479782,0.110664,0.377216,-0.704905,-0.860067,-0.988709,-1.23977,-0.644786,-1.11254,-0.996534,-0.975588,-0.100463,-0.239127,-0.356022,-0.0868404,0.398509,-0.267016,0.269102,-0.242705,-0.785894,-0.435717,-1.0725,-0.261777,0.422768,-1.56304,-0.34815,-0.0367178,0.19324,-0.539644,0.369723,0.607647,-0.577479,-0.0265842,0.0236942,-0.529933,-1.23516,-0.96168,-0.337726,0.144191,-0.505672,0.0238026,0.188771,-0.115741,-0.32561,0.192774,0.157216,0.059212,0.129063,-0.348666,-1.71485,-1.07174,-0.576408,-0.200204,-0.747699,-0.0949765,0.827613,-0.412825,-1.26247,-0.480759,-1.11041,0.0954774,-0.432758,-1.07797,-1.19331,-0.143175,-0.624615,0.0262261,-0.402971,0.207196,0.148258,-0.160992,-0.444323,-0.341901,-0.14193,-0.746156,0.0981255,-0.117481,-0.211718,0.743989,0.288788,0.954192,0.36254,1.11705,0.450058,-1.05621,-0.513592,-0.20545,-0.25141,0.587722,0.407337,-1.12223,0.225547,-0.624073,-0.102423,-0.0363088,-0.0436984,0.517256,0.341601,0.172572,-0.226906,-0.435602,-0.0615234,0.0509773,0.344406,-0.76618,-0.867264,-0.543332,0.432691,0.401679,1.37453,0.493341,0.520435,0.355893,-0.581141,0.0733854,-0.451169,0.0709685,0.384748,-0.319775,0.0150065,-0.49637,-0.503619,0.188376,0.054876,-0.315695,0.088488,-0.318751,0.41188,-0.318126,-0.729571,-0.291245,-0.838517,0.502268,-1.02195,0.580499,0.455661,-0.00401775,0.868729,1.31128,0.246254,0.451914,-0.404797,0.874362,-1.33081,-0.450828,-0.0689391,-0.0542537,-0.824661,-0.214717,0.150343,-0.189951,0.217058,0.0843735,-0.287043,0.325913,0.456397,0.030179,0.0947312,-0.624578,-0.339117,-0.390587,-0.539046,-0.488523,-0.325097,-0.117711,-0.464673,-0.634352,0.0696262,0.230698,-0.405951,-1.25093,-1.4388,-0.279857,-0.191181,-0.347422,-0.687366,0.0108719,0.236806,0.152608,0.219307,-0.435723,0.224204,0.25697,-0.365827,-0.468341,0.26375,-0.14925,1.15871,0.674444,-0.977906,-0.999225,-0.152438,-0.568675,-1.2714,-0.7288,-0.401109,-0.415823,-0.862897,0.448448,0.0230726,0.0547761,0.297987,0.0280427,-0.621257,0.319605,0.486069,-0.0768008,-0.376687,0.175885,0.33404,0.295984,-0.192312,0.0200579,-0.415649,-0.778343,0.362119,0.388798,0.422694,0.762483,0.00888966,0.00944547,-0.162766,0.762782,-0.0146247,-0.781861,0.376851,0.256085,0.677645,0.492415,-1.28729,-1.02805,-0.496068,0.178409,-0.286537,0.313524,-0.34452,0.183499,0.449187,-0.40054,-0.121723,0.0824969,-0.101984,-0.802728,-0.531069,-0.408674,0.00785325,-1.38732,-0.930518,-0.581758,-1.06493,-0.485972,-0.498644,0.201698,0.437747,-0.266288,0.442224,0.200047,0.140851,-0.112496,-0.413195,-0.222751,0.273422,0.434862,-0.403374,-0.340409,0.0749687,-0.277001,0.463775,-0.419137,-0.617108,-0.191111,-0.663645,-0.217931,-0.769384,-0.131572,0.0941477,-0.781183,-0.776719,-0.631209,-0.861882,-0.696274,-0.722895,-0.148375,-0.106585,0.211763,-0.354698,-0.02641,-0.174234,-0.213406,-0.226806,-0.125553,-0.259483,0.466454,-0.120594,-0.195151,0.223045,-0.182058,-0.314398,-0.0177477,0.0214223,0.277627,0.433712,-0.0115507,0.170911,-0.450412,-0.471506,-0.27167,0.176845,0.53403,0.291083,-0.520294,0.552698,-0.32387,0.421371,-0.0295019,0.00935123,-0.176799,-0.181627,0.285575,0.405954,-0.0942564,-0.0225379,0.0873898,0.166829,0.0480514,-0.49588,-0.0392803,0.238424,-0.428572,0.193176,-0.491949,0.232025,-0.165064,-0.394069,0.0902166,0.02696,-0.168441,0.103784,-0.276594,-0.489978,0.0186731,0.223235,-0.361193,0.348959,0.350343,0.496715,0.261376,-0.229514,-0.065569,-0.469726,
0.494934,-0.201102,0.429472,0.0017243,0.11916,0.0858943,0.263237,-0.105426,-0.177511,0.136952,-0.293023,-0.46765,-0.277678,-0.166765,-0.0893049,-0.421048,-0.0132908,-0.300928,-0.264794,-0.332972,-0.429258,-0.197439,-0.343226,-0.190207,-0.390622,-0.282617,-0.475097,0.252251,0.487365,0.430692,0.455077,-0.0820185,0.123609,-0.384682,-0.367534,0.100257,-0.525891,0.138329,0.33448,-0.486256,-0.291091,0.345383,-0.335631,-0.446819,0.0623653,-0.200216,-0.0372272,0.350242,0.378838,0.357045,-0.223279,-0.100726,-0.409207,-0.0801263,-0.212088,-0.0797906,-0.0925779,-0.486236,0.330104,0.457193,0.402403,-0.0785316,-0.229141,-0.0373005,0.280189,-0.619951,-0.410128,-0.445285,-0.475106,-0.600532,-0.464758,-0.408982,-0.918742,-0.718787,-0.228114,-0.284759,0.346818,0.411984,0.148486,-0.135771,-0.0824181,-0.0851071,0.228874,0.478332,0.0413373,0.333674,0.265985,0.278112,-0.425857,-0.205882,-0.251195,0.186866,-0.349654,-0.631119,-0.364632,-0.705313,-0.439928,-0.307219,-0.27957,-0.851683,-0.715923,-0.277797,0.0331243,0.00585317,-0.371209,0.528901,-0.127166,-0.411409,0.401796,0.300423,0.10677,-0.167623,-0.389248,-0.0915579,0.158933,0.356231,0.430707,0.097025,0.258705,0.317661,0.239762,-0.486411,-0.0385913,0.54959,0.148825,1.5034,1.13455,0.205637,-0.178372,0.0747695,0.187801,-0.832115,-0.462432,-1.29545,-0.581328,-0.316279,-0.372375,0.434482,0.405774,-0.0649694,-0.0847652,0.436766,-0.355624,-0.238406,0.576883,0.125956,-0.474476,-0.8221,-0.492451,-0.995693,-0.940316,-0.912774,0.322105,0.61752,0.129711,1.13802,0.0723046,-0.991062,-0.64669,-0.00306816,-0.374494,-0.808495,-1.10148,-0.621239,-0.202074,-0.156371,0.137933,0.201014,-0.156148,0.137373,-0.161729,-0.197324,0.304017,0.447182,0.410705,-0.773066,-0.216035,-1.05511,-0.609056,-1.15826,-0.224738,0.0432233,1.15444,1.77553,1.28699,-0.32975,1.31932,-0.179634,0.82289,0.0436736,-2.17731,-0.538488,-0.441893,-1.45574,-0.0135969,0.0815556,-0.0252541,-0.174479,0.28852,0.45625,0.959099,0.806162,-0.203593,-0.495146,-1.02758,-0.962879,-0.632429,-1.36809,-0.635339,-0.141888,1.13544,1.98246,0.255368,0.422646,-0.0456617,0.0878191,0.0275183,0.408102,-0.585021,-0.641688,-0.556452,-0.900232,0.0640033,0.171573,0.48087,0.0404486,0.308038,0.448124,1.24715,-0.192873,-0.409709,-0.0138199,-1.32758,-0.236053,-0.557188,-1.19058,-1.56785,0.0909685,1.2396,0.457553,1.46107,0.295107,0.454749,0.961849,-0.207836,1.10747,-0.298406,-0.769312,-1.24239,-0.46355,0.315477,-0.0813178,0.0625879,0.234951,-0.264384,-0.576497,0.706897,0.285985,-0.126426,-0.10628,-0.0440953,-0.630502,-0.291737,-1.74812,-1.3266,-0.609577,1.31225,0.386776,1.44903,1.14682,0.311081,0.468767,0.711313,0.435234,0.355223,-0.385534,-1.13728,-0.545717,-0.204144,-0.0226035,-0.378274,-0.510581,-0.454068,-0.137398,0.0247524,-0.37004,0.758866,-0.374688,-0.337527,-1.68035,-1.32073,-2.29866,-1.51691,-0.712797,1.53413,1.65898,0.663314,0.328822,0.936681,0.272991,-0.00303085,-0.531015,0.653101,0.114316,-1.24786,-1.12957,-0.300412,0.00561882,-0.0983686,-0.512442,0.0132306,-0.0456399,-0.348523,0.575169,-0.525362,0.876616,-0.0137346,-0.918004,-1.54806,-2.69012,-2.76752,-0.12625,3.96516,2.19399,0.783905,-0.0919335,-0.101951,0.944745,0.950062,1.44603,1.50442,0.342215,-0.806059,-0.458697,-0.805681,-0.213099,-0.193795,-0.38224,0.0808409,-0.248131,0.0631183,0.575558,-0.39385,-0.471094,0.0376042,-0.225106,-0.527411,-1.66588,-1.67634,1.72403,2.34244,0.657164,0.597674,0.739662,0.717539,1.04719,0.370411,2.71453,0.944539,-0.468647,-0.0807112,0.196134,-0.429467,0.287811,-0.379177,-0.200176,0.25219,-0.409138,0.0332067,0.183124,-0.409984,-0.262945,-1.26957,-1.27218,-0.774291,-1.97844,1.01453,1.76307,1.15832,1.6409,0.56171,0.417902,0.216517,0.437031,1.6314,1.5395,0.254075,-1.19115,0.0930592,0.667742,0.090517,0.481069,-0.147549,0.328461,0.275435,0.0225388,-0.347735,-1.13453,-0.96257,-1.0874,-1.07257,-0.813122,-1.30213,-0.0665368,1.84802,1.0259,1.40496,0.657414,0.316443,0.718593,0.945283,1.00791,0.388195,0.393725,-0.615077,-1.99222,-1.28617,0.74931,0.111385,-0.402131,-0.0915389,0.277649,0.121737,-0.597995,-0.367182,-0.259389,-1.11696,-1.96185,-0.298892,-0.856787,-0.469575,0.0824084,0.64337,1.4347,1.28337,1.33857,1.36571,0.500917,0.875034,0.916029,0.523822,-0.359772,-1.14904,-2.10059,-0.692393,0.628479,0.398658,0.263748,0.326993,-0.0808194,-0.0724644,-0.599113,-0.91358,-0.252079,-0.693769,-0.745464,-0.494502,-0.679284,-0.0396875,1.10418,0.919701,1.42741,0.928356,0.312296,0.501922,0.993309,0.918646,-1.1517,-1.11937,-0.629852,0.581746,-1.09857,-0.427337,0.536827,0.512433,0.440741,-0.209891,-0.452539,0.0761592,0.237642,-0.507039,-0.594945,-1.14503,-0.0325349,0.114247,-0.0401756,0.593752,0.704799,1.20041,1.20175,-0.373245,0.549044,0.843494,0.604415,-0.575516,-0.27981,-1.7142,-0.213501,-1.04718,-0.416352,-0.179528,1.12022,-0.190912,-0.298033,-0.370999,-0.218499,-0.13258,-0.444923,0.0543919,-0.0385989,0.249922,-0.179805,0.25397,-1.20147,-0.510646,1.67601,0.722413,0.958005,0.0421993,0.808226,-0.036813,-0.594962,-0.797233,-0.114175,-0.464842,-0.224192,-0.625577,0.064046,0.754158,0.497009,0.500312,-0.158261,0.0291882,-0.207387,-0.463812,-0.696262,-0.0991471,0.120723,-0.0179513,0.831477,0.217184,0.448951,0.330036,0.0500335,1.26241,1.14901,-0.867631,0.589726,-0.0769597,-1.18245,0.207225,-0.0428072,0.0902488,-0.493088,0.709646,0.319484,-0.273765,0.0236782,0.309486,0.0730722,-0.299097,0.342246,0.504461,0.353373,-0.177143,0.0533633,0.368844,0.463612,0.895057,1.06134,0.290136,-0.248936,-0.707481,-0.452342,-0.693394,-1.09408,0.00948096,0.306207,-0.150506,0.102698,-0.449714,0.649406,0.479141,0.336034,0.707283,0.113177,-0.366816,-0.0684923,0.156026,-0.453762,0.0635961,-0.278793,-0.201094,-0.719775,0.121399,-0.474819,0.212787,0.810384,0.0558114,-0.75468,-1.24435,-0.0897475,0.759055,0.0550779,-0.199285,-0.835137,-0.473027,0.389331,-0.0174136,-0.00721445,0.387927,-0.153186,0.764321,0.195902,-0.0410999,-0.463713,0.386776,-0.039929,-0.247485,-0.00354498,0.311314,-0.0790052,0.512621,0.119701,0.289595,0.53763,-0.162541,-0.209758,0.414685,-0.472138,-0.299968,-0.491367,0.632168,-0.356106,-0.735096,-0.89073,-0.376525,-0.652735,1.17909,0.299677,0.183281,-0.162915,-0.129413,0.231346,0.119312,-0.419126,-0.396901,0.510995,0.246861,0.0749912,0.526924,0.173652,0.203777,-0.238879,-0.771527,0.47444,-0.0462607,-0.666589,-0.854639,-0.151658,0.712064,-0.738468,1.15902,-0.0734529,-0.37273,0.0879857,0.329987,0.888559,0.339137,0.429907,0.172324,-0.125629,0.376125,0.0555895,0.03905,-0.18984,0.445423,0.112065,-0.128594,-0.223449,0.449616,-0.485323,-1.14224,-0.064075,-0.677515,-0.0615452,0.419128,-0.178474,-0.0477685,-0.257498,-0.309825,-0.563818,0.258636,-0.36351,0.610329,0.713755,0.597543,0.17797,0.422795,0.260033,-0.436308,0.292993,0.422296,-0.146347,0.133729,0.623953,0.331163,-0.820976,0.219682,-0.281238,-0.926255,-0.885423,-0.792948,-0.689979,0.255109,-1.39353,-0.664575,0.732438,0.456163,0.681567,0.885014,0.358252,0.384228,-0.0121368,0.39983,-0.159141,-0.237498,-0.198874,-0.195364,0.343013,-0.141926,0.0916942,0.0502132,0.0315336,0.307186,0.627698,-0.00960604,0.0147377,0.0385651,0.073642,-0.333463,0.429335,0.25765,-0.804565,0.28732,0.894376,0.653179,-0.58512,-0.159133,-0.0984037,0.100829,-0.0279405,-0.0367339,0.26812,0.178976,0.0552232,-0.267846,-0.11272,0.0551317,-0.420896,-0.356225,-0.107526,0.303701,-0.258331,-0.341259,0.262906,-0.0415939,-0.283522,0.260047,-0.295458,-0.0650586,-0.0670279,0.283798,0.222342,-0.0275107,0.226134,-0.421245,-0.24942,-0.00217591,0.402688,0.345668,0.142903,-0.17571,0.191031,
0.466826,0.184927,-0.12569,0.335108,-0.314386,-0.0241249,-0.0420392,0.317774,0.226066,0.320887,-0.270989,0.471404,-0.289323,-0.0063032,0.443063,-0.200764,0.319605,0.383389,-0.358852,0.0492111,0.194388,0.410154,0.0313272,0.196036,-0.38345,0.112537,0.347438,-0.0124058,-0.00685141,-0.183187,0.468719,-0.287683,0.180142,0.293936,-0.333924,-0.00954274,0.243333,-0.176517,-0.273148,-0.188938,0.0519504,0.530909,0.0950606,-0.04636,-0.182676,-0.313163,0.488328,0.578416,-0.268045,-0.360247,0.111665,0.364678,0.164144,0.30047,-0.0227515,0.460723,-0.344203,0.072985,0.497284,-0.352497,0.0769437,0.222404,0.044101,0.475205,0.72117,0.487359,0.944848,0.832889,1.06026,0.338236,0.369498,0.700885,0.478128,0.518991,0.554903,0.419763,-0.0795898,0.784335,-0.245717,0.142144,-0.366285,-0.345726,-0.134693,-0.289911,-0.00679037,0.32577,0.379606,-0.221496,0.318322,0.0439683,0.10019,0.568319,0.817194,1.16959,1.4671,1.05757,0.997174,0.770216,0.535818,0.953698,-0.153007,-0.0198639,0.604646,0.36689,0.54504,-0.422523,-0.198459,0.975341,0.432344,0.201404,-0.316271,0.0806452,-0.371761,0.23339,0.0603246,0.000104573,0.442985,-0.259817,0.938684,0.559819,0.0607818,0.258615,1.07199,1.35787,0.688085,0.376719,1.33463,-0.0726977,-0.478452,-0.0955637,0.0576557,-0.200515,-0.0888301,0.95056,0.927898,-0.637715,0.288645,0.252035,-0.2378,0.234854,0.43408,0.117328,0.255427,-0.364492,-0.479533,-0.338433,0.517305,0.648679,0.393725,0.272943,0.614617,-0.110179,0.286718,-0.438473,-0.367144,0.351731,0.831805,1.43259,1.45727,0.617946,1.34248,0.438118,0.85817,0.147321,0.281141,-0.377091,0.234786,0.215407,-0.305872,0.357622,-0.482608,-0.150463,-0.176729,-0.20458,0.285096,-0.105656,0.0301157,0.671942,0.0917248,-0.90784,0.641728,1.06054,0.0608492,0.49583,0.0245596,0.252054,0.12368,0.488905,1.75968,-0.351348,-0.693571,0.644318,0.52474,-0.571375,-0.0938428,0.20086,0.475187,0.17469,-0.210449,-0.370541,0.514389,-0.272252,0.613021,-0.0728078,0.0577443,0.374697,-1.08125,-1.0407,-0.0617031,-1.45296,-0.0692394,-0.704957,0.623847,-0.723065,-1.29804,-0.413279,-0.580061,0.207045,-1.0008,0.196938,-0.770978,-0.176902,-0.0356646,0.517676,-0.0683019,0.449108,0.328987,-0.15379,0.657028,-0.475968,-0.398525,0.247268,-1.09719,-0.524795,-0.237543,-0.0383292,-0.71122,1.1025,-1.34363,-0.985093,-1.55163,-0.142996,-0.787511,-0.0212016,-2.18626,-0.449091,-0.479242,-2.1393,-1.98194,-0.70211,0.483655,-0.167176,-0.239105,-0.459937,-0.0534779,0.670189,0.986561,-0.234663,0.641078,-0.459883,0.157816,-0.0159511,-0.147255,0.416518,-0.0224301,0.388577,-1.19075,-1.41568,-0.921374,-1.4726,-1.6939,-1.21213,-0.950202,-0.445662,-0.126273,-1.78347,-2.26406,-0.00730882,0.0013718,-0.155451,-0.47298,-0.138132,-0.108385,0.460992,0.242848,0.178151,0.921728,1.52921,0.790322,-0.597465,0.642431,-0.804634,0.230613,0.172483,-0.399155,-1.59059,-1.16536,-0.906543,-1.23555,-0.363818,0.0970651,-1.24262,-1.7946,-1.32628,-1.68496,-0.163722,0.183433,0.101203,0.0730304,-0.36391,-0.223785,0.692666,1.2113,0.699626,-0.589897,-1.21507,-0.609843,-0.541277,-0.297743,-0.473665,0.98111,1.25538,1.0347,-0.291757,-0.808059,-0.144854,0.407509,0.605697,-0.00100275,-1.17915,-1.02685,-0.848725,-0.530982,-0.109571,-0.43782,-0.492169,-0.260655,0.209842,0.340761,0.0835677,0.276838,0.122282,-0.3763,-1.08659,-1.01107,-0.34756,-0.0282482,0.354942,0.160136,1.2954,1.60287,0.997981,0.462631,0.18638,0.602031,-0.465851,-0.514772,-1.20652,-0.751077,0.790403,1.23323,-0.12748,-0.600124,-0.383506,-0.392028,0.0570811,0.0316769,0.932469,-0.384254,-0.893085,-0.144329,-0.97473,-0.90065,-1.86778,-2.17847,0.0762295,-0.173028,1.24756,1.63526,1.18703,0.281679,0.00743851,0.156698,0.944932,-0.392739,-0.158513,-1.05499,0.927151,1.58798,-0.21132,-0.297757,0.259708,0.490505,-0.05775,-0.553223,0.791895,-0.491294,-1.2313,-0.145541,-0.612174,0.517107,-0.307271,-0.577228,-0.523974,-0.981689,0.218643,2.60511,-0.412118,0.376472,-1.02485,0.569935,-0.960668,-1.38978,0.368518,-1.31739,0.391025,-0.146622,0.067765,0.403542,-0.280823,-0.12088,0.478168,0.422113,-0.0288332,-1.24361,-0.555773,-0.323372,-0.778933,0.157735,-0.338679,-1.01691,-0.685239,0.0535748,1.62551,1.9361,0.796853,0.34021,-1.28118,-0.498567,-0.651679,-0.308563,0.419838,-0.0240992,-0.0103458,1.51134,0.888395,0.43092,0.0243977,-0.420377,0.454322,0.235833,0.711739,-0.431803,0.0428151,-0.470456,-1.06894,-1.24397,0.170398,-0.388013,-0.040353,0.415343,1.08702,0.779674,0.568523,0.382454,-0.29694,-0.0633036,0.411206,0.134165,0.833802,0.749472,1.28966,1.32931,1.78671,1.05281,0.134019,0.244224,0.110472,-0.0537926,0.608531,-0.0322882,-0.818725,-0.0216952,-0.571819,0.536593,-1.01855,-0.640709,-0.795771,-0.365621,-0.420625,-0.506508,0.830952,-0.0334718,-0.128112,-0.0838858,1.46374,1.34119,0.998416,0.372296,0.217574,0.296371,0.536337,0.715149,0.00120149,-0.476464,0.447931,0.20663,0.984619,0.659104,-0.289947,-0.396542,-0.210392,0.203075,-0.807819,0.585464,-0.394011,-1.33569,-0.572355,-0.247532,0.360836,0.779731,-0.46736,0.361918,-0.505257,-0.0633554,0.0215561,1.13776,0.0338263,0.507297,0.0721241,-0.204254,-0.185478,0.0578472,0.15749,-0.0221485,1.043,0.692844,0.539781,-0.406994,0.00510141,-0.577754,-0.0362846,1.27682,0.957198,-0.192346,0.925061,0.354616,0.847409,1.79983,2.14722,1.15086,0.266629,0.756762,0.817186,1.62825,1.72482,-0.0150322,0.500965,-0.317918,-0.352968,0.021775,-0.144119,0.465719,1.51897,0.968031,0.268886,0.915617,0.30429,0.152436,0.417955,-0.257877,0.915438,-1.01436,-0.579937,-0.445156,0.671392,0.0323542,0.414998,1.07754,0.766215,0.567514,0.355212,1.26376,1.53466,0.0645748,0.255876,0.167944,0.295895,0.448488,0.0525049,-0.0839633,0.799685,1.65515,1.39786,1.01369,1.25531,0.427083,0.807645,0.33805,1.26354,1.01881,0.142521,-0.120031,0.731721,0.537646,0.626344,0.43256,0.649145,0.426087,0.235555,0.659367,0.725201,0.27212,0.248205,-0.0557983,-0.353543,0.044881,0.434153,-0.079307,0.860876,1.6138,1.29677,-0.0530536,-0.759175,0.224893,0.752378,-0.0998402,0.0877761,0.0398208,-0.276448,-0.0150805,0.38917,-0.409485,1.01803,0.685602,0.702378,1.65275,0.721088,0.529446,-0.101461,-0.0486922,-0.133323,0.4653,-0.107198,-0.278954,0.306452,0.346732,0.784817,0.618424,1.22742,0.286344,0.318722,0.461976,0.442131,-0.257886,-0.219452,-0.103899,-0.361436,-0.536131,0.15915,0.490607,0.0837392,1.17604,2.07201,1.1657,0.602838,0.943662,-0.334137,-0.115134,0.6497,0.421193,-0.385128,-0.448943,-0.494873,0.437898,0.131108,0.296161,-0.0362125,-0.503439,-0.0881508,0.86037,1.2261,0.300644,-0.0962751,0.204289,-0.714926,1.32395,-1.00964,-0.899415,-0.0407033,0.954972,0.31696,0.107898,0.259551,0.515067,0.0125118,0.41537,0.38508,0.322904,-0.300623,0.384243,0.454711,-0.0405845,-0.366115,0.0133064,0.220239,0.550344,0.160616,0.681732,1.02291,1.13071,0.518933,0.647187,0.860469,0.410881,-1.11929,-0.982534,-0.542502,0.154484,0.210652,-0.463378,-0.153438,-0.0708436,0.0876857,0.332945,0.331297,0.314414,0.137928,-0.174734,0.101978,0.376186,0.376539,-0.0356757,-0.424735,0.229062,-0.207926,0.109006,-0.558925,-0.0971107,-0.496145,0.0453297,0.375273,-0.240611,-0.509322,0.238699,0.193851,-0.174687,-0.479545,-0.432941,-0.157371,-0.533459,0.182652,0.259275,0.123524,0.351833,0.295923,-0.197226,0.0865658,-0.1433,0.0777764,0.131933,0.380467,0.206651,0.0854594,-0.347332,0.0221355,0.121924,0.197379,-0.138314,-0.482029,-0.462817,0.0141485,-0.160226,-0.423443,0.0948249,0.000496167,0.452745,-0.285308,-0.309783,0.0432255,0.000961333,-0.0195776,0.284112,-0.25396,
0.443937,-0.00877407,0.250114,-0.200064,-0.415311,0.186819,0.23339,-0.131458,0.137959,-0.193442,-0.134175,-0.494079,-0.407773,0.432066,-0.239403,0.298914,0.408506,-0.483062,-0.452574,-0.113971,-0.412534,-0.190512,0.230247,0.0100558,0.137684,0.073748,-0.351985,0.259789,0.474853,0.016068,0.320887,-0.342463,0.284416,-0.177771,0.446092,-0.273972,-0.123324,0.220592,0.43687,0.385954,-0.307794,0.510103,0.483709,-0.305296,0.124573,0.0279187,-0.263283,-0.47443,-0.176194,-0.0598937,0.0730404,-0.313108,-0.0276955,-0.360866,-0.195547,0.0509201,-0.135029,-0.0797601,0.289148,-0.00201972,-0.332099,0.0425275,-0.0959687,0.199814,0.118372,-0.174856,-0.320161,0.598795,0.248328,0.579671,-0.0982803,0.321534,0.125442,0.544413,-0.0327167,-0.30901,-0.145995,-0.414648,0.107189,0.121351,-0.210437,0.00434898,-0.279077,-0.135151,-0.0656606,-0.424955,-0.456379,0.130502,-0.14759,-0.0624965,0.195854,0.223634,0.180675,-0.426204,-0.105605,1.17809,1.19742,0.950161,1.27423,0.914962,0.174345,0.284183,0.504794,0.425002,0.925268,0.121516,0.273651,0.161408,0.26294,0.286766,0.25376,0.00715659,-0.357356,-0.0277262,-0.00360763,0.153156,-0.318334,0.246171,5.09324e-005,0.396859,0.441138,1.05924,0.6261,0.343059,0.516085,-0.0765129,0.418703,0.512065,-0.395275,0.113443,0.310696,0.209433,0.283033,0.328405,0.4637,0.152946,-0.140764,0.497763,0.259622,-0.0972958,0.278375,0.0309915,0.0508156,0.0187448,0.357626,0.0801143,0.299798,-0.725043,0.223133,0.780703,0.52969,0.783687,0.429207,0.356533,0.308,-0.48559,-0.29231,0.740892,0.226771,0.577625,0.263638,0.820129,0.437865,0.632844,0.667904,0.437647,0.513597,0.293919,0.267388,0.0473082,-0.477074,0.270124,0.27689,1.15725,-0.0219738,-0.543887,0.00878919,-0.707658,0.269585,0.185158,-0.423856,0.397515,0.33334,0.216061,0.0898068,-0.351807,1.00659,-0.257585,-0.240431,0.431402,0.774109,0.536325,0.352975,0.00500916,-0.15599,-0.366818,0.319359,0.0965466,-0.12132,-0.139992,-0.303559,-0.2598,0.958044,0.0526147,0.159221,0.282699,-0.685769,0.0536843,0.789664,-0.000662425,0.885036,0.589635,0.509072,0.977045,0.134689,-0.106243,-0.121091,-0.740587,-0.205039,0.315187,0.650822,0.872648,0.134312,-0.14009,-0.370927,0.403546,-0.294024,-0.588836,-0.658246,0.0380133,-0.0176568,-1.16534,-0.520056,0.0115107,-0.234421,0.265934,-0.761716,0.00428769,0.211413,1.08933,0.518106,-0.38451,0.514378,-0.431397,-0.429025,0.379164,-0.835786,-0.51935,0.379546,0.279197,0.36642,-0.0835008,0.362085,-0.252134,0.0840987,-0.169713,-0.487679,-0.122374,-0.264156,-0.929064,-0.0812873,-0.107339,0.0312371,0.627746,-0.468664,-0.29638,-0.560336,0.140942,0.106894,-0.755613,0.305022,0.94844,0.136973,0.68592,0.435458,0.32599,0.522998,0.811675,0.493928,0.484176,0.113905,-0.307482,-0.0651164,0.148181,-0.490061,-1.24707,-0.930009,0.188653,-0.815241,-0.117772,-0.956231,-0.396619,-0.5023,-0.817321,0.00659141,-0.50922,-0.445155,0.196517,0.275328,0.0992506,0.0840002,-0.0670874,0.20426,-0.295802,-0.00038927,1.17751,-0.163088,0.24497,-0.391462,-0.281211,0.236393,0.050657,-0.961143,-1.09724,-0.143328,-0.789421,-0.521678,-0.930626,0.0201507,0.162409,0.761806,1.37462,0.193869,0.490378,0.360788,0.71357,0.566242,-0.492737,0.102296,-0.147755,-0.136093,-0.174087,0.00583128,0.160122,0.217132,-0.349187,0.307069,0.173134,-0.422199,0.358713,-1.29139,-0.543031,0.150733,-0.339585,-0.434103,0.667353,0.795526,0.201191,-0.50849,2.27553,1.37708,0.137463,0.0151727,0.307677,-0.426244,-0.249066,0.340311,0.327267,0.269062,0.891289,-0.175675,0.501073,-0.154729,0.197199,0.180241,-0.217008,-0.403893,-0.251344,-0.351119,-0.0311659,0.911981,-0.255332,0.107485,0.382551,0.343828,0.0984188,2.73594,1.66661,0.575988,0.737022,0.920123,0.844822,1.07348,0.286998,1.10182,0.968652,0.405778,-0.227485,0.113692,-0.0507993,-0.0677365,0.158165,0.342007,-0.430188,-0.385428,0.332871,0.342082,0.803965,1.5742,0.82269,1.01984,1.12781,0.76448,1.25205,1.72078,1.10067,-0.146425,0.661204,0.0834235,-0.0779874,-0.0931461,-0.311201,0.671717,0.481991,-0.00761576,-0.792075,-0.0272585,-0.209859,-0.322897,-0.00353986,-0.224723,-0.37765,-0.445397,0.0641331,0.697398,1.54175,0.814465,2.13588,2.07652,2.20427,2.22532,1.03077,1.30598,-0.850133,-0.772002,0.155095,0.784235,0.666125,-0.452796,0.594036,-0.912248,0.145973,-0.842578,-0.621124,-0.468849,-0.543582,0.289124,-0.215021,-0.137197,0.24692,-0.0392568,0.0760476,1.45315,1.95026,0.385972,1.69722,2.07878,2.33278,0.279452,0.892413,-0.278794,-1.04899,-0.705175,-0.519681,-0.996087,-0.126446,0.155575,0.0561519,-0.0520979,-1.00418,0.0266335,0.483301,-0.0539278,0.0489629,-0.0266531,-0.158986,-0.0563829,-0.433329,0.214913,0.665473,0.727304,0.601497,0.684281,0.813822,2.4615,1.87204,0.861507,-0.831649,-1.48568,-1.4486,-0.650831,0.0339816,-1.03043,-0.103945,-1.09313,-0.433285,-0.502586,1.22709,0.68677,-0.0704583,0.110434,-0.146014,0.276843,-0.460161,-0.389619,0.0804409,0.396455,0.407721,0.165969,-0.630915,0.940424,0.355379,1.05626,0.891,1.03793,-1.31929,-1.91188,-1.64489,-0.401628,-0.273589,1.3402,0.15089,0.614591,0.441398,0.0640666,1.78515,1.05297,-0.2145,-0.721584,-0.48557,-0.0517712,-0.254964,-0.0102805,-0.1057,0.372406,0.159289,-0.690713,-0.324485,0.72093,0.360747,0.341272,0.398949,1.15556,-1.82417,-2.86066,-1.67089,-0.893408,-1.55515,0.0761898,0.219299,0.550483,0.325419,-0.36123,0.861638,1.01436,-0.16999,-0.313006,0.199984,-0.391595,-0.410157,-0.346156,-0.25138,-0.0622486,0.165422,-0.667065,0.771898,0.688431,0.171497,-0.147519,0.665793,0.808908,-0.735903,-2.56221,-1.60852,0.246499,-0.646249,-0.0168814,-0.368938,0.235272,0.446995,0.961883,0.324361,0.364569,0.0542298,-0.828164,-0.0331081,0.184146,0.342251,0.499857,0.366163,0.317942,0.0716004,0.125253,1.44693,0.770487,1.26739,-0.0807848,0.0426964,0.423837,0.573091,-0.745599,-0.681328,-1.24582,-1.22044,-0.247202,-1.30219,-0.518792,0.778066,0.488769,-0.729293,0.717333,0.157278,0.0353982,-0.127628,-0.296439,0.368068,0.197296,-0.060619,-0.438728,-0.110583,0.118458,0.0274033,-0.0140615,-0.153807,0.25043,0.880917,0.328824,0.819224,0.878551,0.23142,-1.23554,-0.92064,-0.263229,-0.618656,-0.873837,-0.967315,-0.35318,0.133835,0.186683,0.187664,-0.158849,0.349778,-0.333779,-0.177328,0.494537,0.0855892,0.0252584,0.900523,-0.163129,-0.765564,-1.06032,-0.708891,0.51206,-0.068303,0.588443,0.0437462,-0.0215246,-0.127901,0.0232392,-0.537504,-1.47356,-1.23772,-1.12764,-0.747006,0.237087,0.179577,-0.0025904,-0.4667,-0.150644,-0.185349,-0.454143,0.154988,0.0778069,0.148061,-0.242724,-0.238816,-0.0687047,-0.657148,0.317743,0.804318,0.631093,1.20521,0.529216,-0.167318,0.282713,-0.322629,-0.70578,0.156286,0.233656,0.716388,-0.0506479,-0.442237,0.534886,0.732885,-0.00217285,0.554259,0.398963,-0.179672,0.0816517,0.0213782,0.205832,0.166433,-0.315038,-0.308316,0.292473,0.580932,0.491611,0.101146,-0.0132688,0.0906089,0.997075,0.365356,0.353291,-0.0144381,0.555726,0.817822,0.150152,-0.249032,-0.0719759,0.403354,0.445727,0.0649141,-0.167733,-0.287359,0.0183636,-0.288379,0.257542,-0.298791,-0.161245,0.365352,0.43234,0.400751,0.534334,-0.0917305,-0.222996,-0.39975,-0.09323,-0.0129736,-0.0778433,-0.456536,1.03839,0.310563,-0.549285,-0.621736,0.237077,0.729057,-0.101541,0.0242453,-0.168693,0.501625,0.309497,0.46692,-0.436369,-0.378262,0.131855,-0.391934,0.479705,-0.495453,0.38934,-0.278314,-0.329775,-0.231386,-0.217303,-0.161948,-0.274794,0.232913,0.175117,-0.304,0.0238454,-0.166608,-0.612918,-0.0582135,-0.407591,0.0245918,0.392956,-0.569937,-0.138529,0.442798,-0.0378593,0.278122,-0.483856,-0.30221,0.225974,-0.00987274,
0.448057,-0.0661489,0.0651723,-0.0974914,0.20394,-0.162526,-0.110706,-0.321345,-0.430845,0.342189,-0.470916,0.43234,-0.115126,-0.121323,-0.167738,-0.297113,-0.215079,0.286493,-0.449767,-0.0799738,0.428526,0.246391,-0.32754,-0.473815,-0.24398,-0.367641,-0.0112156,0.413968,-0.196738,-0.302973,0.162008,-0.166341,-0.397289,0.491648,0.090279,0.426023,-0.294235,0.424642,-0.14987,-0.415515,-0.0627743,0.481012,-0.00683504,-0.474738,-0.217196,0.300919,0.354306,0.0195454,0.0195505,-0.375895,-0.333706,0.0214616,-0.349147,0.310572,0.301843,0.125294,-0.36227,-0.471679,-0.0565374,-0.174861,0.133714,-0.156059,-0.160202,-0.0105734,0.537683,0.3462,-0.476569,0.548173,-0.0987132,-0.282358,-0.0418339,0.246896,0.370524,0.294724,0.586594,-0.0354507,-0.0234362,0.00377067,0.459512,0.33675,0.188677,0.258957,0.49353,-0.119495,-0.0426496,0.0851924,-0.104294,0.443994,0.341332,-0.0328848,0.390103,-0.176125,0.273604,0.197843,0.181467,-0.185988,-0.0248389,0.259714,0.00912203,0.752673,0.586878,1.01846,0.543178,0.332107,0.179483,0.419756,-0.379759,0.048593,0.400458,0.301952,-0.161512,0.342341,-0.13094,0.261163,0.188206,0.0735097,-0.341729,-0.543814,-0.773243,0.691402,0.230619,0.10713,-0.768725,-0.0791101,0.121901,-0.314774,0.292461,-0.685628,0.742666,1.44105,0.0475448,1.00216,1.00238,0.0456489,0.371039,-0.0257363,-0.10305,0.153358,-0.0170052,-0.365727,0.293603,-0.0774407,-0.0651709,0.34018,-0.37547,-1.10294,-0.676523,-0.454964,-0.495144,-0.20494,-0.758192,0.531723,-0.0895888,-0.137131,-0.900396,-0.595048,0.857368,1.85438,1.03424,1.66464,2.31857,1.23585,0.560647,0.522513,0.242715,0.525187,0.30359,0.150662,-0.0777459,-0.0872271,0.237392,-0.323787,-0.259021,-1.09184,-0.684301,-0.756974,0.33996,0.363375,-0.870851,-1.26721,0.04634,-0.738681,0.0226026,-0.700168,-0.214368,0.431253,-0.317829,1.82716,1.86396,1.76642,1.81295,0.119441,0.549295,0.0237573,-0.298332,0.198191,-0.363063,-0.336697,0.0936061,-0.699161,-0.952339,-0.561405,-0.739514,-0.690882,1.16908,0.68456,0.246716,-0.580594,-0.124745,-0.762859,-1.39987,-0.000436743,-0.338832,-0.233538,0.725059,2.35405,2.49113,2.25063,2.0501,0.630664,0.426155,0.235376,0.483381,-0.423883,0.111345,0.283302,0.305598,-0.124094,-0.388192,-0.849146,0.124715,0.0684908,1.38905,-0.734694,-0.224411,0.842802,0.403308,-0.32513,-0.00547492,-0.581589,0.421052,-0.677005,0.436628,1.60786,2.05825,2.16251,1.14694,0.943748,0.338579,0.231205,-0.343436,-0.238415,-0.187038,0.397725,0.430986,-0.0903959,-0.288274,-0.0718374,-0.68484,0.59793,1.112,1.09015,1.24975,0.59495,-0.180449,-0.278594,-2.49156,-1.78446,-1.37991,-0.483003,1.70174,2.22108,2.35843,2.29027,0.801993,0.56795,0.0719817,-0.438434,-0.503604,-0.407452,0.124003,-0.312823,0.440207,-0.353793,-0.0150969,-0.0221114,0.314097,0.372217,1.44122,1.28621,0.495058,-0.179586,0.336495,-1.73362,-2.94405,-2.13057,-0.279257,1.42374,1.94643,1.88466,2.22275,0.975599,0.563796,-0.0116266,0.0281337,0.311825,0.1442,0.196524,-0.199821,0.360206,-0.320896,-0.201754,0.355854,0.313548,1.08061,0.988003,0.715177,-0.204176,0.989533,-1.22092,-1.70664,-0.604858,-0.46594,-0.485184,1.02993,2.14833,1.94628,1.40556,1.16413,0.814804,0.270752,0.564685,-0.0773386,0.116218,0.325999,-0.463613,0.486389,-0.461316,0.315354,-0.0884374,0.557535,0.705065,1.76704,1.02795,-1.5099,-0.630046,-0.476792,0.326954,-1.10306,-0.014391,-0.859797,-0.260118,0.63305,1.07426,1.05029,0.330176,0.56955,-0.00950343,0.587778,-0.10967,-0.342502,-0.64573,-0.33872,0.187053,-0.492614,-0.324748,0.14521,-0.295345,0.624344,0.0354228,0.281874,0.320846,0.146047,0.0437746,-0.482398,0.656652,-0.500484,-0.470536,-0.294949,0.0602061,-0.449131,0.631343,-0.0139675,-1.04636,-0.130235,0.287926,0.350799,0.694371,-0.425741,-0.486707,-0.00381757,-0.177488,-0.346854,0.106852,0.37937,-0.135948,0.249679,0.603167,0.531875,0.349419,0.266242,-0.471651,0.159009,0.271731,0.807231,0.446508,-0.651304,-0.344271,0.358184,0.639336,0.461057,-0.530892,0.157487,0.173963,0.479737,-0.0982135,0.165417,-0.0518998,-0.311199,0.154724,0.176118,-0.00767504,0.393252,-0.577391,-0.644267,-0.0961866,-0.108993,-0.37062,0.37369,-0.23183,-0.108411,0.643807,0.267215,-0.824365,-1.02053,1.13565,0.276304,-0.581639,0.976169,0.397577,0.403081,1.35666,0.450688,-0.0259448,-0.143033,-0.937173,-0.0175478,-0.209655,-0.278313,0.324902,-0.0326102,-0.2721,0.33969,-0.168938,-0.573456,-1.31491,0.196993,0.0243914,0.185213,-0.255666,0.314577,1.1031,0.105897,0.796228,0.0211179,0.14929,0.382446,-0.548887,-0.00352612,0.0424706,-0.507516,-1.03001,-0.566562,-1.09853,-0.286966,-0.0499226,0.40762,-0.40166,-0.478686,-0.194136,0.345201,0.219206,-0.8714,-0.358062,0.857007,-0.0796497,-0.0326696,0.0462271,0.121515,-0.42957,-0.962426,1.14043,0.984139,0.277335,-0.664823,-0.564718,-1.10836,-0.822269,-0.904345,-1.40828,-0.899046,-0.852694,-0.507809,-0.386394,-0.2278,-0.168614,-0.390724,-0.252431,0.215748,0.0263345,-0.616002,0.509075,0.488646,-0.188126,-0.129947,-0.630427,0.231447,-0.398485,-0.0512574,0.646999,0.633331,-0.167517,0.486274,-0.137399,-0.61527,-1.77713,-1.53767,-0.441515,-0.880795,-0.325433,0.257574,0.101109,-0.184224,0.337146,0.0573627,0.498989,0.00288301,-0.659249,0.270816,-0.517364,0.275421,0.502268,-0.189266,0.396456,1.26545,1.05819,0.465127,-0.344867,0.210423,-0.728123,-0.240278,-0.58929,-0.350596,-0.498874,-0.874191,-0.0605643,-0.250337,-0.34818,-0.261773,-0.385913,-0.164235,0.055025,-0.28372,-0.185839,0.406704,-0.0199658,0.376141,-0.786848,0.289658,-0.359937,0.264129,0.0424449,0.459412,0.934336,-1.07897,0.0407264,0.492799,0.509296,-0.937287,0.564764,0.54621,-0.856013,0.255541,0.045609,-0.0402414,-0.536609,-0.486727,0.374751,0.304065,-0.213262,-0.151495,0.202313,-0.0319613,0.196654,-0.210608,-0.0733672,0.69328,0.96165,0.745994,0.403027,0.448836,1.22541,0.308163,0.561962,0.0175139,0.767653,-0.335996,-0.0110009,0.744147,1.24117,1.07319,0.542034,0.349824,-0.271132,-0.437747,-0.374233,0.476159,0.360635,0.275828,0.306222,-0.398154,0.277081,-0.316498,-0.767283,-0.193197,-0.551244,0.425344,0.771053,0.172693,0.217698,0.625581,0.0768365,0.520996,0.333927,-0.789245,-0.0421824,-0.00710621,0.741954,0.273332,0.305908,-0.208235,-0.329844,0.0130407,0.480407,-0.0321207,-0.384762,-0.358645,-0.0619576,-0.71279,-0.859979,-0.25867,-0.421131,-0.124432,-0.186203,0.242238,0.22318,0.184703,0.188934,0.828143,1.06756,0.363325,-0.783498,0.143564,0.838979,1.22772,0.418116,0.133657,0.195751,-0.125787,0.0699077,-0.336494,0.277795,0.0131687,-0.40524,0.0890491,-0.476327,-0.805698,-0.653073,0.0345112,-0.516934,-1.58577,-0.840965,0.588793,0.837746,1.23032,1.26938,0.150401,1.18334,0.406275,0.321967,1.20312,0.103047,0.329402,0.445267,-0.0350886,0.296461,-0.368968,-0.103444,-0.135986,-0.00315867,-0.377956,-0.0712455,0.230574,-0.151886,-0.0603207,-1.03778,-0.878153,-1.34188,-1.57005,-1.15421,-0.615014,-0.155633,0.591283,1.21512,0.790299,0.127269,0.804719,0.712617,1.71492,0.998283,0.60318,0.823448,-0.146216,0.163444,-0.245041,-0.0772093,0.439783,-0.211203,0.358058,0.375484,-0.0442366,0.393,-0.180093,0.00463258,-0.490886,-0.0603916,0.00217818,0.471158,0.324413,0.161822,0.224572,-0.211289,0.954896,1.19345,0.603081,0.928138,0.669309,-0.0171199,0.649078,-0.0137701,0.135577,0.342095,-0.0221435,0.226859,-0.216727,0.230461,-0.0468917,-0.148122,-0.322596,-0.0311747,0.290013,-0.258036,-0.355566,0.265257,0.183212,0.498069,0.243612,-0.328821,-0.265899,0.456928,-0.351692,-0.19488,0.411463,-0.235949,0.0279423,-0.395052,0.381608,0.106234,0.0605229,0.285701,0.377346,0.117908,0.337397,0.391964,
0.479461,-0.206839,-0.365505,-0.270867,0.190512,0.267357,0.0634632,-0.133778,-0.428282,-0.447142,0.499634,-0.060564,0.427843,0.095054,-0.472864,-0.06505,0.0839412,-0.431944,-0.322565,0.0988952,-0.21926,-0.187735,0.239891,-0.3699,0.220939,0.321833,0.425901,0.312799,0.296625,0.186514,0.167928,0.244499,-0.470039,-0.105502,0.294526,0.21611,0.163422,-0.13668,-0.441923,-0.465007,-0.0765885,0.302708,0.021249,0.283477,-0.33502,0.0312867,-0.126403,0.430415,0.314579,0.462939,-0.421043,-0.119626,0.470061,-0.214866,0.214499,-0.0203406,0.49295,0.122028,0.442259,0.215231,0.120405,-0.060945,-0.305462,0.368578,-0.515666,0.0611308,-0.447094,-0.226098,-0.242955,-0.385193,-0.480943,-0.251536,-0.11163,-0.535234,-0.65104,0.0871038,-0.0638275,0.0568283,0.176161,-0.378211,0.26109,-0.0729259,0.312525,0.400052,0.0395062,0.205405,-0.416624,-0.082841,-0.433676,-0.376024,-0.154713,-0.542481,-0.357008,-0.625873,-1.14276,-0.242429,-0.636638,-1.21442,-0.437132,-0.50906,-0.826831,-0.492319,-1.29652,-0.748317,-0.758739,-0.486875,-0.113351,0.376621,-0.117114,-0.276485,-0.0231071,-0.134632,0.376156,-0.324697,-0.299181,0.0849732,0.217737,-0.0426424,0.150483,-0.638104,0.0784931,-0.991718,-1.73474,-1.64999,-1.4528,-0.695004,-1.52123,-1.56401,-1.1618,-1.6285,-1.67606,-0.979001,-0.247464,0.433861,0.320997,0.231499,-0.109161,0.119409,0.119714,-0.0671023,-0.352504,-0.430021,-0.242711,0.0402387,-0.171755,-0.474602,-0.705652,-0.34968,0.515812,0.588501,-0.592415,-0.615257,-0.55697,-0.425194,-1.00938,0.190476,-1.18424,-0.373911,-0.403289,-1.49227,-1.28932,-1.20965,0.229979,0.570323,-0.181468,-0.258923,-0.0811815,-0.331734,0.308496,-0.214431,-0.178914,0.296747,0.265023,0.608439,-0.0389346,0.172203,0.446975,0.0499784,-0.692358,0.0413315,0.0426717,-0.619511,0.712313,0.208013,0.363879,0.397235,0.831222,-0.2034,-0.384861,0.0243599,-0.227255,-1.11681,-0.958765,0.265831,0.654841,0.400753,0.317397,0.208663,0.496318,0.388082,0.870038,-0.24051,-0.0658965,0.277601,-0.860779,-0.0011449,0.437906,-0.267407,0.406293,0.375979,-0.434853,-0.653968,1.32915,0.440417,-0.0941449,-0.423267,0.846492,-0.126178,-0.0390202,-0.237406,-0.668557,-0.394642,0.246493,0.32716,-0.364298,-0.157027,0.0644341,0.347243,-0.0165215,-0.283233,0.0383653,0.472174,0.490052,0.531392,0.014473,0.224871,-0.875005,-0.276709,0.416936,0.736095,0.635732,0.330806,0.0410636,-0.774389,0.2653,-0.744017,-0.69748,0.174859,-0.248139,-0.550335,-0.360867,0.245699,0.254338,0.319052,0.338478,-0.0637085,0.800281,0.487053,-0.546712,0.0647556,0.380082,-0.588846,0.666757,0.473032,0.899548,0.194827,-0.0133652,0.0997106,-0.65385,0.557409,0.61034,-0.112591,-0.204957,-0.0407389,-0.282825,-0.828166,-0.965238,-0.944978,-0.580031,0.25037,0.460911,-0.131712,0.153046,-0.32158,-0.0705636,-0.129268,-0.151642,-0.713698,0.0859687,0.0562459,0.238914,-0.24539,1.24521,0.0822074,-0.0993526,1.09978,0.110438,-0.0507393,0.0676864,0.704397,-0.832663,-0.772077,0.0112565,-0.989787,-2.14471,-1.42684,-0.573369,0.410349,-0.425619,-0.0362339,0.33335,0.555563,-0.0549169,-0.206064,0.782737,0.609564,1.63846,1.33899,0.409862,0.643863,0.428821,-0.784895,-0.193625,1.63025,0.864727,1.51954,0.473351,1.60336,0.0198162,-0.0919352,0.342472,-1.77534,-1.55796,-0.608005,-0.500572,-0.472282,-0.142602,0.168488,-0.264881,0.577197,0.554328,-0.216417,0.119058,1.31957,0.961403,0.565162,0.375531,1.12404,0.128311,-0.729764,-0.782874,1.23772,1.20735,1.36664,1.05905,1.71805,0.014462,0.224472,0.74087,-1.35789,-1.42489,-0.509444,0.0176051,0.405966,-0.16863,0.19116,-0.232593,0.545607,1.04506,0.722373,0.579472,0.560106,0.206322,0.24112,0.233972,-0.472187,-1.39098,-1.522,0.743708,1.36512,0.620929,1.10269,-0.146528,0.0528248,0.576198,1.24349,-0.324463,-1.19113,-1.16913,-0.603369,-0.368281,0.425883,-0.290768,-0.444198,0.429112,0.0525053,0.754788,1.01562,0.373684,1.03803,-0.242222,-0.524221,-0.453563,0.672973,-0.870838,0.145504,0.331441,0.539983,1.1977,-0.0491851,1.48578,1.18009,1.55651,0.903103,0.408659,-0.464926,-0.376261,0.435207,0.0242671,-0.18258,0.169844,-0.144845,-0.16453,0.0763859,1.44041,0.340913,0.803336,0.0758983,0.0560363,-0.502223,0.238942,0.0851261,-1.51433,-0.493274,0.390348,0.396054,1.01424,1.70391,1.64518,1.68273,0.361085,0.360648,0.42926,0.541542,0.137434,-0.00235367,0.22327,-0.260884,0.179982,-0.484306,-0.365329,-0.368282,1.50125,0.807916,0.415426,0.481938,0.623527,-0.833654,-0.111014,-0.678779,-0.857694,-0.387762,0.426432,0.22832,0.929185,0.233893,0.769347,0.208619,0.681934,0.571807,0.446111,0.980891,0.110841,0.306408,-0.0626701,-0.0345564,0.102771,0.127971,0.436271,0.4044,0.297374,0.307545,0.264895,1.18902,0.9595,-0.394472,-0.337196,-0.12684,-0.21938,0.689828,0.880629,1.21449,0.824229,0.144829,0.600925,-0.925672,0.389977,0.612063,-0.595127,0.485297,0.11291,-0.525491,-0.421561,-0.42598,-0.205912,0.105814,-0.457647,-0.357266,-0.751846,-0.528947,-0.980051,-0.951284,0.660831,-1.03843,0.44815,0.254814,-1.55086,0.352834,-0.330696,0.333957,-0.266508,-0.907508,-1.96589,-0.880829,-1.55972,-0.613693,-2.66742,-1.67088,-1.37379,-0.734521,0.474758,0.394228,-0.0881512,-0.369721,0.479802,0.361097,-0.806654,-1.35542,-1.37892,-2.56796,-1.88689,-2.3728,-1.16625,-0.881287,-0.793775,-0.737124,-0.118669,-0.33607,-1.97861,-2.15878,-1.45232,-2.38843,-2.04947,-1.42736,-3.24908,-2.62076,-0.354165,-0.179744,0.289852,0.0132283,0.159536,-0.229011,-0.113829,-0.544769,-1.1767,-1.77724,-1.80759,-2.50684,-0.880237,-2.18391,-2.39994,-0.703807,-0.821486,-1.032,-0.867223,-1.80111,-0.0851118,-1.15542,-0.502598,-2.18105,-1.94033,-1.67674,-2.02397,-1.68095,0.232296,-0.516584,0.452274,0.0899571,-0.322688,0.145357,-0.00576836,-0.342225,-1.12901,-1.98192,-2.31502,-1.60655,-0.911312,0.247831,-0.372788,-1.42759,-0.245951,-1.75508,-1.18358,-0.658774,0.507248,-0.537345,-0.447514,-0.99055,-1.30793,-1.37442,-1.20627,-0.986028,0.164052,-0.36841,-0.30695,0.0806757,0.304589,0.209632,-0.256727,-0.801731,-0.942069,-0.959047,-1.05379,-0.126775,0.246942,-0.619522,0.310142,-1.06343,-1.60276,-1.31528,-0.330411,-0.80422,-0.97991,-0.563788,-0.332773,0.116563,-0.102595,-1.65383,-0.487837,0.0253392,-0.333712,-0.284609,-0.149625,-0.0946226,-0.0710318,-0.186941,0.0465553,-1.13515,-0.975695,-0.470991,0.00972582,0.0703184,0.161647,-1.37843,0.110864,-0.609058,-1.10258,-0.644051,-1.04354,-1.28911,-0.966772,-1.28391,-0.616401,0.635202,-0.439193,-0.523481,0.312033,0.448546,-0.193696,-0.390757,-0.408755,-0.309778,-0.357418,-0.229698,0.172006,-0.367978,-0.283263,0.342968,0.285774,-0.520012,-0.229143,-1.75246,-0.150125,-1.05769,-1.74433,-0.929381,-1.30545,-1.2374,-1.82478,-0.48365,-0.497111,-1.14677,-0.55362,0.48563,0.448385,0.893289,0.423138,-0.0964944,-0.0585421,0.164357,-0.0763115,0.150533,-0.443953,-0.372363,0.223018,0.578863,0.0915368,0.106299,-0.280069,-1.7418,-0.981942,0.679363,-0.929014,-1.05369,-0.0132846,-1.3378,-0.345681,-0.18211,-0.0964051,-0.0935892,1.1197,0.213569,0.184174,0.669999,-0.370031,-0.290217,-0.00483782,-0.190268,-0.437864,0.376644,-0.130177,-0.373457,0.0810765,0.343853,0.0336811,-0.135055,0.381945,0.179096,1.56837,0.853898,-0.0489308,0.0789663,0.534041,0.607338,-0.217157,-0.140139,-0.472377,0.0482936,0.148136,-0.0363229,0.261674,0.19418,0.460603,-0.157788,0.251915,0.356746,-0.451994,0.434843,-0.041673,-0.361629,-0.0598679,0.232199,-0.38846,-0.30508,0.32803,-0.387487,0.199003,-0.438665,-0.267393,0.238647,0.119426,0.0702865,-0.445089,0.161423,-0.0539107,0.234835,0.508239,0.170434,0.480997,0.0840322,0.392911,0.096881,0.206351,-0.28103,
-0.358119,0.0391095,0.204703,-0.42877,-0.423521,-0.338313,0.356502,0.160604,0.363704,-0.434233,0.052324,0.233695,-0.493123,-0.500663,-0.260184,-0.157369,0.169057,-0.447661,0.0135655,0.200369,0.217185,0.0693228,0.40231,0.443785,-0.427366,-0.197592,-0.365352,-0.0384381,-0.154744,0.0945311,-0.335231,0.442686,-0.1856,-0.431126,0.238734,0.300128,-0.228536,0.20103,0.281076,-0.373314,0.157488,0.233986,-0.167416,0.172223,0.281983,-0.431976,0.229062,-0.21173,-0.337793,0.066519,0.032749,-0.0566279,0.45996,0.25396,0.125507,0.396115,0.490417,0.303064,-0.36343,-0.352574,0.104022,0.196859,0.200264,-0.459998,-0.512849,0.0315917,-0.220224,-0.732417,0.295155,0.551861,0.121758,0.230528,0.27425,0.419019,-0.153997,-0.528329,-0.0998709,0.233209,-0.00243023,-0.4724,0.15434,0.342259,-0.136036,0.396542,0.167959,0.255669,-0.237302,-0.467101,0.0658351,-0.0504058,0.343433,0.175966,0.147907,0.704393,-0.102442,0.519345,0.702443,0.305351,0.863329,0.840386,0.945734,0.539002,-0.235692,-0.428236,-0.870889,-0.828425,-1.02894,-0.0689154,0.234934,-0.448219,0.0487902,0.029313,0.211051,-0.145417,0.132735,-0.039216,0.414609,0.231889,0.459038,-0.037604,0.253172,0.496752,0.277582,0.110645,0.218467,0.184177,0.232284,0.92872,0.664023,-0.520983,-0.135336,0.522599,1.39406,-0.432608,-0.687752,-0.981576,-1.05116,0.0234025,0.544618,0.144308,-0.0448469,0.409543,0.349795,-0.125044,-0.00510024,0.422233,0.44968,0.523561,1.15702,-0.564126,0.422048,-0.417846,0.858201,-0.286985,0.115298,-0.735689,0.506488,0.234489,0.359941,-0.320678,-0.0521704,-0.0999752,0.36414,-0.158515,-0.79824,0.252108,0.58954,-0.271437,0.49176,0.251199,0.135538,-0.285696,0.151782,0.281301,0.173699,-0.0946743,0.01381,0.972052,0.485183,0.362945,0.0897809,-0.256281,0.457579,0.320996,0.410205,-0.207649,0.42464,0.207413,-0.477477,-0.629984,0.387224,-1.09315,-1.25174,-0.397765,-0.156824,-0.312439,0.134908,0.260454,0.239579,0.211943,-0.0163768,0.193713,0.299325,0.0613604,0.628737,0.653917,-0.439419,1.01661,0.536554,0.823341,0.683651,-0.239661,-0.0680142,0.302742,-0.0968046,0.0488777,0.432973,0.197639,0.725899,-1.9294,-0.932023,-0.600317,-0.303538,-0.0872801,0.319871,-0.222181,0.0954951,-0.137068,-0.315678,0.256551,-0.598336,0.434086,0.202232,0.089185,0.687562,0.13587,0.260797,-0.474318,0.693324,0.935194,0.455872,0.69896,0.59698,0.264205,0.174949,-0.140658,0.963981,-1.54412,-2.09167,-1.03169,-0.350749,0.355149,0.15136,0.371075,-0.0295713,-0.042586,-0.205866,0.688018,-0.862282,0.433108,0.901936,0.645985,0.48688,0.392792,1.48689,-1.05699,-0.96003,1.10403,1.074,0.303431,0.418268,0.842906,-0.802242,-0.55156,0.517889,-0.338747,-1.35748,-0.53553,-0.459362,-0.0605661,0.321929,0.42359,0.296741,-0.316394,-0.550043,-0.320395,0.0525691,-1.02783,0.00252503,-0.472432,-0.930788,-2.09626,-2.64922,-4.16978,-3.48707,-1.39992,0.194966,0.409278,0.167773,-0.16011,0.393755,0.514197,-0.972563,-0.512336,-1.24351,-0.334861,0.351868,0.299797,-0.382711,-0.252627,-0.24395,-0.574469,-1.53653,-1.37411,-0.882708,-2.60097,-4.18628,-5.15906,-5.51617,-4.73495,-3.822,-1.72558,-0.649625,0.436625,-0.153703,-0.0886725,0.0861453,-0.120095,0.670273,-0.56084,-0.855505,0.672187,-0.452389,0.168802,-0.220859,0.394312,-0.271158,-0.0195725,-0.106531,-0.772108,-1.56234,-2.99497,-3.26434,-4.81708,-4.1966,-2.7058,-0.8822,-0.656125,-0.0986329,0.393401,-0.978808,0.378577,0.446681,-0.282548,0.429697,0.0751497,-0.300151,-0.659491,-0.467548,-0.197343,-0.0486571,0.361982,0.369432,0.193646,-0.408556,0.451121,-0.180626,-0.499798,-0.918532,-3.28957,-3.48193,-1.7129,0.292391,0.666332,-0.474263,0.90665,0.176053,0.103228,-0.270496,0.667274,-0.214426,-0.557998,0.0124372,0.147168,-0.223748,-0.649549,-0.575955,-0.428526,0.391323,0.31889,0.0568995,-0.439634,-0.0347907,0.320646,0.219833,-0.946173,-0.669058,-1.44464,-0.0202719,1.52799,0.389848,0.306018,0.31133,-0.00798375,1.00688,0.334073,0.27284,0.159373,0.289428,0.163021,0.0301989,-0.42085,1.01537,0.92933,-0.235292,-0.150865,0.154654,0.898338,0.431109,0.0485761,0.4808,0.255143,-0.0909061,-0.0412232,0.26535,0.0606164,0.157549,0.778032,0.124897,-0.539347,-0.311455,0.323675,-0.609787,0.105171,-0.023927,0.766409,0.749658,-0.323637,-0.263803,0.213656,-0.990398,1.15906,-0.0381264,0.549919,1.13622,0.497093,0.0822819,-0.361464,-0.13509,-0.310059,0.209148,0.137734,0.173086,-0.237649,0.672513,0.0913229,-0.223853,0.0112661,-0.00311899,-0.458663,0.539479,0.412292,0.147428,-0.326452,-0.96686,0.219168,0.769752,0.397144,-0.0955392,-0.0236402,0.153841,0.247911,0.452354,0.811487,0.0305348,-0.0742088,-0.432035,-0.19008,0.286222,0.452304,0.374588,0.375619,0.710151,-0.0684456,-0.806701,0.258658,-0.0198881,0.0544426,0.12196,0.733739,0.488279,0.939984,-0.28082,0.209479,-0.294557,-0.0323059,-0.930791,-0.415669,-0.691055,-0.694911,0.295957,0.689404,-0.153846,0.0821201,-0.48972,0.184794,-0.0430727,0.439547,0.940453,0.830162,-0.0522839,1.30217,-0.117615,0.362871,-0.282133,-0.474297,0.327123,-0.0104574,-0.0515782,0.757124,-0.380809,0.429409,0.488092,0.75523,0.368948,0.0344377,-0.145709,-0.0948861,0.563284,0.46446,0.553076,-0.0881802,0.163429,0.37693,0.253267,0.163298,1.20846,0.25988,0.0384471,-0.0238436,-0.0530064,0.264766,-0.259958,-0.323259,0.211691,0.13171,-0.66001,0.0147264,0.523095,0.788087,0.531993,0.471045,0.206767,1.14673,1.20047,0.535623,0.619089,0.273036,0.181966,0.218109,-0.304285,0.417053,0.116168,1.01916,2.18527,-0.387739,0.398632,-0.44618,0.0790924,0.615799,-0.34362,0.169306,-0.443209,0.611503,0.325867,-0.312143,0.273066,-0.281488,-0.0514663,0.12096,-0.493952,0.28035,0.1894,0.504559,0.393907,0.0875872,-0.421829,0.20245,0.383105,0.44123,-0.316956,0.617276,0.245097,1.18149,-0.403454,-0.683198,0.715695,0.24657,0.51624,-0.280478,-0.656709,0.119193,0.250166,-0.146853,-0.104869,0.121263,0.0655703,0.935792,0.429891,0.481424,-0.0183598,0.483451,-0.156664,-0.276295,-0.352689,-0.244866,0.0217356,0.251091,0.207103,0.238571,0.218562,1.89839,0.658584,0.658747,0.838712,0.0768791,-0.0837114,-0.113488,-0.552217,-0.594631,0.497609,-0.213904,0.143722,0.405069,-0.0072792,0.277574,0.115553,-0.0357183,0.541525,0.998974,0.347379,0.42143,0.45218,0.342157,-0.449614,0.442412,0.54874,0.431372,0.278247,0.786608,0.519248,1.02551,-1.05412,-0.896986,-0.972456,0.0439278,-0.180996,-0.0233971,-0.37939,-0.297391,-0.138434,0.00525566,0.0660606,0.613603,-0.33911,-0.080323,0.403647,0.42738,0.704741,0.265651,-0.245317,-0.351955,-0.394925,-0.460997,-0.268912,0.78171,0.731412,0.676316,0.535377,0.326728,0.625795,0.235452,-0.126537,-0.282945,-0.281105,-0.323868,-0.593446,-0.0264644,-0.0253458,-0.109731,-0.609209,-0.432918,-0.339145,-0.952583,0.266533,-0.00925192,-0.167918,0.367311,0.0143529,0.454924,0.223838,-0.226157,0.00883121,-0.233341,0.573162,0.494031,0.491647,0.732726,0.349949,1.0808,1.25697,0.558122,0.70159,0.0357784,0.111609,0.467155,0.0174868,-0.807896,-1.1054,-1.20715,-0.887109,-1.25882,-0.314675,0.35127,-0.353034,0.22292,-0.260186,-0.0905637,0.421018,0.240104,0.217093,-0.00336021,-0.0151171,0.00167244,0.225201,0.387197,0.134638,0.194251,-0.185457,-0.240543,0.0980613,-0.412474,0.14093,-0.440153,-0.35525,-0.558431,-0.546146,-0.510041,0.0380777,-0.287331,-0.449239,0.201145,-0.0496689,0.435878,0.290216,-0.239219,-0.150838,-0.219596,-0.19274,-0.46408,-0.391282,0.0491132,-0.0749032,-0.349777,0.0737225,-0.423818,-0.423546,0.063971,-0.336457,-0.209536,0.047089,-0.279389,0.466819,-0.146749,-0.428954,0.0178412,-0.351492,-0.0226966,-0.157792,0.163499,-0.181539,0.149037,0.446135,-0.337428,
0.267724,0.455962,0.0790277,-0.449705,-0.0963927,-0.323603,-0.0431379,-0.472503,0.454131,-0.365078,0.0812555,-0.335902,-0.01442,-0.195181,-0.484771,-0.177694,0.257378,0.36932,-0.175283,0.457274,-0.0543382,-0.32458,0.34228,-0.0494858,0.267571,0.486389,0.0345622,0.133198,0.0369121,-0.0606861,0.254234,0.154653,-0.317133,-0.385739,0.134114,0.314521,0.257144,-0.382623,0.0590827,0.293205,0.00754018,0.102586,-0.388712,-0.400794,0.38228,0.0991718,-0.372303,-0.324116,0.333961,0.0995595,-0.49088,0.480804,-0.464629,0.253716,-0.419248,0.268151,0.356044,-0.324946,0.371731,-0.383673,-0.497698,-0.361648,0.298775,-0.632853,-0.481736,-0.234118,-0.375846,-0.346972,-0.858357,-0.557929,-0.754537,-0.100603,0.0653737,-0.322285,0.337083,0.193013,-0.011918,0.221872,-0.16719,0.441773,-0.130864,0.249352,-0.484436,-0.201956,0.464507,0.151662,-0.153358,-0.451065,0.424902,0.198356,0.329132,-0.313754,-0.461904,-0.80178,0.306542,0.451124,0.0237145,0.195031,-0.291995,-0.157236,-1.00866,-0.25604,-0.481249,-0.446602,0.116541,0.329136,-0.591408,-0.970102,-0.49528,-0.380964,0.309985,-0.413999,-0.475585,0.128419,0.164734,-0.300806,0.0821208,0.493874,0.022836,0.263278,0.0235581,0.797939,0.351819,0.43163,0.225993,-0.514218,-0.678716,0.251281,0.128729,-0.0664652,0.941685,-0.210061,-0.160981,-0.480702,-0.843333,-0.404654,-0.00149426,0.525782,-0.100294,0.158145,0.403836,0.160482,-0.320698,0.454985,-0.361031,0.220432,-0.0446439,0.288854,0.707311,0.158967,0.142045,0.410567,0.154999,1.10979,0.391028,0.558034,0.300087,-0.675785,1.31806,0.276545,0.050077,-0.848806,-0.135601,0.226849,0.330235,0.387581,0.483441,0.361441,0.0787225,0.269032,-0.00104102,-0.106627,0.967774,0.816002,0.206018,0.0822121,0.051744,-0.061667,0.182343,-0.358804,-1.02162,0.717936,0.458091,0.095732,0.859407,-0.0711119,0.462521,-0.461582,-0.452603,-0.331678,0.0674327,-0.583379,1.07484,0.856361,0.107164,-0.247278,-0.126562,0.0958621,-0.200843,0.899905,0.549386,-0.192391,-0.211149,0.357713,-0.966663,-0.612626,-0.204577,0.300737,1.30027,-0.0532671,0.78665,-0.506553,0.137001,-0.179738,0.273021,0.46751,0.292421,0.483737,-0.326616,-0.214916,0.483608,1.28315,0.0134148,-0.239709,0.257335,0.385949,-0.0686212,-0.047044,0.298937,-0.468221,0.0750241,-0.249228,0.734333,-1.00413,-0.273909,-0.691594,-0.3916,-0.700308,0.739369,1.54385,1.09574,-0.112506,0.428699,-0.476352,-0.160353,-0.0883989,-0.501397,-0.130782,0.0965233,0.63941,-0.20893,0.288599,0.41598,0.137148,0.265132,0.560506,0.105552,-0.511283,-0.287398,-0.473244,0.337725,-0.374292,-0.5735,-0.832838,-0.216842,0.939507,1.19361,1.83699,1.43921,0.318063,-0.0917088,-0.36088,-0.58653,0.302571,-0.335901,0.235697,1.20972,0.700974,0.561367,-0.0986142,0.31966,0.303231,0.140568,0.576551,0.349199,0.420984,0.501499,0.149555,0.174843,-0.212734,-0.397755,0.161569,-1.06175,-0.197532,-0.179904,-0.251228,0.0895752,0.925324,0.379503,0.419419,-0.0343059,1.2104,0.00903576,0.293135,0.491231,1.03743,0.029065,-0.0559926,-0.49979,0.305256,0.150935,0.515476,1.00786,-0.417257,0.795544,0.590507,-0.226639,0.0352657,-0.247866,0.444056,0.217248,0.447994,-1.50074,-0.669983,-0.885335,-0.115306,1.86067,0.303529,-0.0589772,0.416203,0.0709584,-0.335222,-0.0744045,0.996309,0.0782616,-0.151562,0.26338,0.333176,0.076124,0.533663,1.34458,0.170308,0.32976,-1.2359,1.03396,-0.135033,0.457911,0.890546,0.487549,0.814368,-0.916705,-1.05362,-0.356055,-0.281471,0.514494,-0.93766,0.445273,-0.416107,-0.395621,0.0769549,0.0175231,0.585986,0.834902,0.446599,-0.450884,0.508335,-0.292483,1.1415,0.892978,0.957626,0.294996,-0.552958,0.304577,0.253549,0.212691,-0.18335,0.528941,-0.83342,-0.764998,-1.40099,-1.265,-1.13156,-0.898141,-1.35033,-0.563843,-0.315298,-0.289687,-0.28221,-0.137416,0.205206,0.367036,0.0824855,0.162494,0.00691028,-0.113828,-0.0139326,0.4594,0.212266,0.124248,0.0119514,0.939288,0.511171,-0.153774,-0.568167,-0.0540039,-1.8339,-0.818396,-1.89369,-2.00028,-0.809497,-0.777001,-1.0586,0.0684109,-0.441584,-0.239576,0.94886,0.585128,0.37248,-0.192659,-0.0319443,-0.408578,0.031225,-0.0169962,-0.813537,-0.644375,0.892115,0.692236,0.0290791,-0.41697,-0.742866,-0.422341,-0.690471,-0.837328,-0.820792,-0.752352,-1.31212,-0.96993,-1.03566,-0.26575,1.06343,0.488999,0.559433,0.79947,-0.0350576,0.243244,0.242351,0.498499,0.192481,0.132252,-0.440566,0.519302,-0.49788,0.5933,0.00715314,-0.839815,-2.38935,-1.68815,-2.33913,-0.560029,-1.04319,-1.01765,-0.293979,-1.74285,-2.22482,-0.594238,-0.0312824,0.450174,0.761692,-0.10186,1.23924,1.64234,-0.187823,0.502471,0.0496281,-0.0201469,0.211568,-0.460692,-0.284571,0.325703,0.120098,1.14321,1.01935,-0.777028,-1.28076,-2.78047,-2.62655,-2.09487,-2.39335,-2.30537,-2.31677,-2.82014,-0.698534,-0.0682599,1.06678,1.04919,0.822523,0.018812,0.665167,0.388563,-0.635539,0.0894116,0.364576,0.400887,0.203293,-0.0745654,-0.148706,0.136784,0.554622,1.35498,0.0170637,-0.199004,-0.838566,-0.313381,-1.69136,-1.75486,-1.14381,-1.74251,-1.24556,-1.57663,0.0961956,0.498768,1.3953,0.48053,1.26246,0.273492,1.0598,1.26584,0.156105,-0.138685,-0.213857,0.220297,0.39482,0.0908698,0.422632,0.428878,0.0455535,1.28808,0.126256,0.339172,0.743796,0.985651,-0.382495,0.632638,-0.407346,1.13465,0.729748,1.00484,-0.15223,-0.48133,-0.0330606,-0.657961,0.676868,-0.190474,0.240254,0.169277,0.371191,1.17727,0.113898,0.0433132,0.449623,0.118519,-0.132638,0.13335,0.307544,-0.169095,0.604887,0.822993,0.505708,0.935773,0.624528,0.618949,1.60574,1.08177,0.843945,1.2705,0.739031,0.804817,0.285104,0.830154,0.282224,-0.373212,-0.406417,1.15875,0.612233,0.431092,0.383369,0.199697,0.0691763,0.257103,0.43637,-0.388578,-0.0875423,-0.0829324,0.179941,0.452479,-0.342985,0.706647,0.102837,1.63345,1.13824,0.428692,0.784784,1.04596,0.36517,1.30262,-0.978826,0.227227,-0.249698,0.633738,-0.580974,0.357086,-0.217515,-0.300451,-0.488393,0.213809,-0.342158,0.00773644,0.124756,0.239896,0.417363,-0.0628195,-0.439534,0.832359,0.268105,0.503145,0.666542,-0.208144,0.116407,0.686783,0.632718,0.52367,-0.29046,0.701696,0.997021,-0.47423,0.452428,-0.382886,-0.498868,0.566574,0.335966,-0.479605,-0.506766,0.113955,-0.134633,-0.485382,-0.262749,0.415165,0.468874,0.845077,0.582882,0.482406,1.32478,0.819446,1.56405,0.464849,0.663732,0.589402,-0.297943,0.703947,0.393277,-0.120858,1.10705,-0.563964,-0.821454,-0.588457,0.0765518,0.024406,-0.244626,-0.315113,0.351177,0.136272,-0.419126,0.0180517,0.329798,0.161753,-0.00903882,0.576143,0.463605,0.430297,0.799835,0.610866,0.638587,-0.0852311,-0.237679,0.297995,-0.00843814,0.848613,0.0430414,-0.749041,0.716184,0.367277,-1.0254,-1.25896,-0.191714,0.535487,-0.382568,-0.132165,0.0593158,-0.0150678,-0.182852,-0.417234,-0.101093,0.411883,0.0900237,0.157479,0.41792,0.609332,0.65704,0.497721,0.377138,0.28454,0.750257,0.582894,0.617831,0.869042,-0.389323,1.02801,0.536499,0.960934,0.562764,0.0549056,0.213164,0.542137,0.290596,0.22823,-0.412607,-0.138309,-0.405332,-0.179312,0.0890378,0.284143,-0.319549,0.102601,-0.140987,-0.502503,-0.204743,-0.0187655,0.0502569,-0.190494,0.499843,1.13787,0.284449,0.244504,0.0292085,1.23774,1.13751,0.553148,0.352466,0.323689,0.652641,0.132078,-0.152271,0.488159,-0.334824,-0.417692,0.421567,-0.17394,0.261376,0.262383,0.0784173,0.453758,-0.485135,0.297311,-0.0175506,-0.383094,0.0131145,-0.23784,-0.236943,0.316528,0.604961,0.0279586,0.301557,-0.141496,-0.153806,0.113992,-0.194847,0.219108,-0.244686,-0.19734,0.299861,0.481994,0.0718558,-0.179586,0.462859,
0.0427412,-0.232505,-0.257683,0.242882,0.348476,0.0631275,-0.234031,-0.205954,-0.231895,-0.233634,0.224693,0.347346,0.418156,-0.381312,0.173788,0.444273,0.0444502,-0.286523,-0.316309,0.182516,-0.0663015,0.00910978,0.0804315,-0.380062,0.303003,0.162923,-0.0858333,-0.00697348,0.281487,-0.227744,-0.0617847,-0.0942259,-0.0342571,0.321255,-0.120455,0.147453,-0.403869,-0.220385,0.292239,0.303515,0.448123,0.261529,0.368117,0.19412,-0.174588,0.333601,-0.00817027,0.396773,0.502114,0.0601386,0.173236,0.184864,-0.379055,0.291925,0.214133,0.225547,-0.393338,0.468719,-0.387959,0.257128,-0.184494,0.0684412,-0.0559257,-0.326289,-0.196971,-0.195125,-0.207665,-0.164575,-0.418917,0.0620073,0.587024,1.1042,-0.342419,0.352493,0.774617,1.16777,0.460382,0.397525,0.689744,0.602341,0.36695,0.443707,0.44174,0.112842,0.310816,0.0297708,-0.411183,0.258961,0.131647,-0.599002,0.229366,-0.0623381,-0.607162,-0.982702,-1.55305,-1.8214,-1.64052,-0.0533449,-0.494883,0.235719,0.4217,-0.0756778,1.59957,1.15071,0.545441,0.898299,0.508994,0.354733,0.906375,-0.205099,0.0437856,0.211142,-0.304559,0.139912,-0.455606,0.162638,-0.340097,-0.131696,-0.445862,-0.292035,-1.60404,-1.90451,-0.473664,-1.36315,-0.9959,0.0583025,-0.57811,0.38704,-0.66499,0.60921,-0.00630967,-0.187269,0.216534,0.864602,0.378432,0.586051,0.452798,0.181466,-0.205301,0.177798,-0.121967,0.450529,0.0394245,0.355322,-0.446001,-0.464262,-0.747286,-1.26941,-1.18214,-0.914038,-0.198588,-0.233071,-1.75635,0.117769,-0.465121,-0.310904,-0.082422,0.0307328,0.198123,-0.618699,0.194065,0.424134,0.158331,0.606574,-0.125018,-0.0831013,-0.432251,0.153921,0.34225,-0.197146,0.182061,0.22353,-0.51966,-0.494372,-1.23125,-1.55684,-1.4647,-1.7743,-0.651962,-0.789501,0.95049,-0.873351,0.567732,-0.10311,-0.680611,0.772268,0.282836,-0.461277,0.706932,-0.129621,0.225708,0.853389,-0.122467,0.180691,-0.222733,0.212933,0.451689,-0.478162,-0.45853,-0.0384082,-0.385943,-0.313165,-1.5916,-0.795529,-0.693102,0.250404,1.09383,0.614976,0.271393,-0.267613,0.772765,0.607738,-0.56834,0.422137,0.620658,-0.164372,1.1237,0.897354,1.20896,1.00932,0.710854,1.06139,0.345622,-0.454936,-0.354957,-0.0951658,-0.548166,0.389706,-0.390516,-1.24787,-1.1014,-0.419425,-0.203729,-0.989215,0.236826,0.22471,-0.11379,0.160249,-0.42518,-0.213154,-0.0374503,0.252026,-0.312555,1.16362,1.90773,1.46406,0.892354,2.20555,1.73768,1.71907,0.285602,-0.475585,-0.467922,0.422828,0.15019,-0.665905,-0.946277,-1.16577,-1.31442,-0.922034,-1.06793,-0.656533,-0.741123,0.267835,0.937156,-0.323048,-0.508638,-0.469644,-1.15054,-2.60919,-0.918157,-0.302268,0.665907,2.22118,1.91822,1.3863,1.39997,1.03491,-0.021361,-0.123645,-0.39264,-0.181645,0.202747,-0.313875,-0.623756,-1.51023,-1.62452,-0.789976,0.461619,1.14408,0.153197,-0.00657413,1.01572,0.578842,-0.359267,-0.358028,-1.83433,-3.47865,-4.36525,-5.43668,-4.39644,-3.4333,-2.0507,-1.41664,-1.24227,-0.363597,0.412374,-0.306805,-0.19614,0.119162,0.368233,-1.27405,-1.20016,-0.935187,-0.00916692,-0.334719,0.759043,-0.434591,0.00556183,-0.317854,0.00853104,-0.0235598,0.221901,0.672596,0.707715,-0.568074,-0.150557,-3.50062,-5.38082,-4.59704,-3.46612,-2.25942,-1.41206,-0.373671,-0.334745,0.192774,-0.398499,0.353718,0.0370132,-0.25115,-0.378064,-0.394568,-0.0269317,0.489444,-0.0794645,0.478484,0.0120406,0.554443,0.637108,0.269061,0.095548,-0.141983,0.17508,-1.30765,0.296915,0.21668,-2.58094,-3.54724,-3.02732,-2.78708,-1.76514,-0.495607,0.0960928,-0.203614,-0.086903,-0.357212,0.114991,0.0883518,0.0191262,0.0848556,-0.313223,-0.0169947,-0.452498,-0.204688,-0.199966,0.68801,0.560274,-1.09977,-0.458364,0.757994,-0.426053,-1.21019,-0.160253,0.950761,0.510258,-1.43631,-2.15631,-2.14412,-1.72983,-0.595109,-0.244607,-0.134661,0.460838,-0.18674,-0.108155,-0.00407781,-0.188506,0.249501,0.711785,0.0872286,0.496302,0.597475,0.0996942,-0.43889,0.581982,-0.125549,-0.0884966,0.482929,0.511679,0.082751,0.150359,0.183961,1.87466,0.226887,-1.05804,-1.60088,-1.04901,-0.691412,-0.50707,0.454456,-0.130182,0.292756,-0.122151,-0.223422,-0.342474,-0.255573,-0.419886,-0.195483,-0.0605765,1.30897,-0.507387,-0.402692,1.03201,-0.370426,-0.0230307,0.422725,0.101884,-0.436472,0.816684,-0.570607,1.10072,-0.590659,0.430262,-0.689633,-0.781146,-0.733447,-0.629995,0.108463,0.191203,0.245051,0.241156,-0.447326,0.24512,-0.266332,-0.395113,-0.110808,-0.745563,-1.29671,-0.327663,0.512898,-0.623951,-0.327275,0.550271,-0.178822,-0.970495,0.692211,-0.748487,-0.298283,-0.402411,-0.0890513,0.21855,-0.556279,-0.596222,-0.065792,-0.592138,-0.0601032,0.0752129,-0.0584846,-0.0357998,0.486108,-0.474995,0.792334,0.461312,0.211808,0.340486,-0.0526816,0.397179,-0.207615,-1.20587,-0.742922,0.789755,1.02124,-0.685129,0.0670877,-0.372826,0.32518,-0.138285,-0.140325,-0.262019,-0.627059,-0.0197116,-1.27192,0.0340288,0.309762,0.314211,0.0158509,-0.355865,-0.0255223,-0.120277,-0.690261,0.0617511,0.580257,0.741311,0.141626,-1.48569,-0.914124,0.234088,-0.249191,0.49474,0.289828,-0.854501,0.0205589,0.0123459,-0.123628,0.12122,-0.2301,-0.194466,-0.296271,-0.373276,-1.10954,0.105244,-0.37396,-0.0258391,-0.0556493,0.237351,-0.610639,0.40399,-0.0705038,0.101877,-0.738825,0.584048,0.347814,-0.515488,0.299365,0.632219,0.304217,0.630568,0.674421,0.404853,-0.976607,-0.228924,-0.560704,0.266155,0.496078,-0.346133,-0.135857,-0.349277,-0.15269,-0.25498,0.267705,-0.169546,-0.379015,0.000543844,-0.85516,-0.237775,0.419734,0.458178,-1.01102,-0.564248,0.199425,0.425084,0.462893,-1.07142,-0.565633,0.2979,0.0732699,0.897602,0.394742,-0.0506957,0.34653,0.063573,0.272026,-0.362706,0.218178,-0.293256,-0.151081,0.37,0.314268,0.332355,0.319295,-0.168727,-0.172388,0.253382,-0.363424,-0.410577,-0.311294,0.352856,-0.24479,0.173168,-0.189296,0.374209,1.06709,0.362034,0.0947629,0.0839112,0.200752,1.11549,-0.415861,0.908752,0.204895,0.684035,0.224534,-0.221891,-0.595024,-0.266414,0.408841,-0.191191,-0.0263542,-0.426874,-0.608035,0.205856,0.123081,-0.991836,-0.401125,0.671714,1.39731,-0.533289,0.124828,0.320594,-0.0479815,0.553061,-0.0799974,-0.0259445,1.02404,-0.0332174,-0.577997,0.614835,-0.568522,0.346892,0.493004,-0.037277,-0.338185,0.353338,0.00468459,0.138783,0.0273904,-0.0264749,-0.656378,0.367056,0.310609,0.408498,-0.747272,-0.284594,-0.239007,-0.382294,-0.367908,1.2009,-0.598685,-0.166905,0.0384744,0.467206,0.227506,-1.11685,-0.340269,-0.648197,-0.491264,0.421513,0.48153,-0.198305,0.334806,-0.337333,-0.282861,-0.397549,-0.239067,-0.258497,-0.703861,-0.39274,-0.115518,-0.2134,0.127057,0.448729,-0.560943,-0.46761,-0.502461,-0.335447,-0.530933,0.0637459,-0.66023,-0.293278,1.01109,0.0813822,0.144623,-0.455109,0.119118,0.277358,-0.244594,-0.477914,0.296288,-0.392201,-0.157674,0.133168,0.409177,0.279718,-0.36105,-0.29678,-0.876814,-0.230672,0.197613,0.617171,-0.0804235,-0.794441,-0.182725,0.379589,-0.691933,-0.0993924,-0.296306,0.318974,1.75807,0.980037,0.711921,0.210105,0.316783,0.878717,-0.0622752,-0.145215,-0.246395,-0.334767,0.358486,-0.311792,-0.0764031,-0.273217,-0.260043,0.0854781,0.475134,-0.121121,-0.05968,-0.493539,-0.353304,0.171097,-0.375667,0.490031,-0.0387454,0.264979,0.799788,0.390642,0.260963,-0.199151,-0.379541,0.503836,0.228746,-0.144665,0.468916,0.343838,-0.49823,-0.131031,0.147969,-0.0420087,-0.278954,-0.0503403,-0.0809809,-0.0799489,0.0657489,0.0511776,-0.287115,-0.292299,-0.230949,-0.0587672,0.232392,-0.446333,-0.366139,0.385168,-0.445343,0.388712,0.241194,-0.0772461,0.0387263,0.179314,-0.020248,-0.133861,-0.101466,-0.0914182,-0.428892,0.368343,-0.466247,
